
//<![CDATA[

// a few things don't have var in front of them - they update already existing variables the game needs
lanesSide = 3;
patchesAhead = 50;
patchesBehind = 10;
trainIterations = 100000;

// the number of other autonomous vehicles controlled by your network
otherAgents = 0; // max of 10

var num_inputs = (lanesSide * 2 + 1) * (patchesAhead + patchesBehind);
var num_actions = 5;
var temporal_window = 0;
var network_size = num_inputs * temporal_window + num_actions * temporal_window + num_inputs;

var layer_defs = [];
    layer_defs.push({
    type: 'input',
    out_sx: 1,
    out_sy: 1,
    out_depth: network_size
});
layer_defs.push({
    type: 'fc',
    num_neurons: 30,
    activation: 'tanh'
});
layer_defs.push({
    type: 'fc',
    num_neurons: 30,
    activation: 'tanh'
});
layer_defs.push({
    type: 'fc',
    num_neurons: 30,
    activation: 'tanh'
});
layer_defs.push({
    type: 'fc',
    num_neurons: 30,
    activation: 'tanh'
});
layer_defs.push({
    type: 'fc',
    num_neurons: 30,
    activation: 'tanh'
});
layer_defs.push({
    type: 'fc',
    num_neurons: 30,
    activation: 'tanh'
});
layer_defs.push({
    type: 'regression',
    num_neurons: num_actions
});

var tdtrainer_options = {
    learning_rate: 0.001,
    momentum: 0.0,
    batch_size: 64,
    l2_decay: 0.01
};

var opt = {};
opt.temporal_window = temporal_window;
opt.experience_size = 3000;
opt.start_learn_threshold = 500;
opt.gamma = 0.7;
opt.learning_steps_total = 10000;
opt.learning_steps_burnin = 1000;
opt.epsilon_min = 0.0;
opt.epsilon_test_time = 0.0;
opt.layer_defs = layer_defs;
opt.tdtrainer_options = tdtrainer_options;

brain = new deepqlearn.Brain(num_inputs, num_actions, opt);

learn = function (state, lastReward) {
brain.backward(lastReward);
var action = brain.forward(state);

draw_net();
draw_stats();

return action;
}

//]]>

/*###########*/
if (brain) {
brain.value_net.fromJSON({"layers":[{"out_depth":420,"out_sx":1,"out_sy":1,"layer_type":"input"},{"out_depth":30,"out_sx":1,"out_sy":1,"layer_type":"fc","num_inputs":420,"l1_decay_mul":0,"l2_decay_mul":1,"filters":[{"sx":1,"sy":1,"depth":420,"w":{"0":0.06402984706615002,"1":-0.032690941447404254,"2":-0.022589969280794913,"3":-0.011021596116609982,"4":0.020603153193637803,"5":-0.0015651538204609322,"6":-0.03679002456365587,"7":-0.005463792759788751,"8":0.002631480009632387,"9":0.029082209348676415,"10":-0.06213799974086708,"11":-0.03107814339683333,"12":-0.0615251232861614,"13":0.0203278221735337,"14":-0.020324418473999132,"15":0.05825559805915459,"16":0.008902999518216806,"17":-0.06859943731519828,"18":0.02868338576725664,"19":-0.0634955989915494,"20":-0.14170504574773576,"21":0.03120034848594489,"22":-0.06904255893605202,"23":0.011439482179468885,"24":-0.02606521693118839,"25":-0.00994886578856547,"26":0.05380922517984949,"27":-0.014438324525409144,"28":0.08305981325970166,"29":0.0034668815989743803,"30":0.11194199713426325,"31":0.006895417868187342,"32":0.03753284922729374,"33":-0.022637338033142187,"34":-0.05242249794148199,"35":0.007736900748163975,"36":-0.0402617858077885,"37":0.0513357530842573,"38":0.028535805453169288,"39":0.07555119263121624,"40":0.009557663536352515,"41":-0.029845664045005705,"42":0.013557626187470747,"43":-0.033169175184957704,"44":-0.0704158889346639,"45":0.08821447190143869,"46":0.007466169382003777,"47":0.030428482303087045,"48":-0.007900476488555576,"49":0.011949564199612203,"50":0.043772989033546435,"51":0.05373065064300949,"52":0.0819490286241092,"53":-0.061277772284195106,"54":-0.029516954196323598,"55":0.02705106603123327,"56":0.019359883807777555,"57":-0.06871191447665302,"58":0.06773547397471605,"59":0.006443293495657979,"60":0.010080339147778953,"61":0.017398059054269964,"62":-0.03788205643889736,"63":0.039275920616021,"64":0.02916928472468629,"65":-0.03697069640902347,"66":0.018967573140330474,"67":0.03316868570775398,"68":-0.01719934494596296,"69":-0.04603541435644518,"70":-0.036075835763283035,"71":-0.02245687695518683,"72":-0.005100595195152501,"73":0.00276940810079059,"74":-0.06328406178317304,"75":0.02657695228252274,"76":-0.022000419090225785,"77":0.016875462509331605,"78":-0.01084703892976818,"79":-0.05570110453417112,"80":-0.030270525532198608,"81":-0.011325945057209474,"82":0.012589118461220891,"83":0.04118285555394477,"84":0.06386806484833474,"85":-0.07588110594120671,"86":-0.020247662697828957,"87":0.02919217439105622,"88":-0.02782773072839199,"89":0.09583311222863716,"90":0.09599310263297682,"91":0.04908417861565133,"92":-0.027643307188634104,"93":0.11617758174414201,"94":0.11838665916293484,"95":0.027067172026086474,"96":0.033553858971086224,"97":0.027800312758403174,"98":0.05728153348079492,"99":-0.034342862169212646,"100":0.02248333258577354,"101":-0.04701226497837346,"102":-0.019352773514614147,"103":0.016107010716492502,"104":-0.039680298569462376,"105":-0.04452722318261453,"106":-0.07601103571413544,"107":0.09369024737951515,"108":-0.01306960092671859,"109":-0.020477034752563354,"110":-0.031183374997615323,"111":0.055235218875322616,"112":0.02336778034461981,"113":-0.04988747827653223,"114":0.11847331845017445,"115":-0.047594169177875935,"116":-0.013356402666677534,"117":-0.0708055863647495,"118":-0.03980165323971611,"119":-0.017200810143438317,"120":-0.02813930856234257,"121":0.0219614904795026,"122":-0.0634383749725548,"123":-0.03140361185326338,"124":-0.01075019824015035,"125":0.041946368990994846,"126":0.07338010500081914,"127":0.06031986171090567,"128":0.09869285514204994,"129":-0.013112394182814834,"130":-0.06564778167567462,"131":-0.04266935240622198,"132":0.06347865801660249,"133":-0.0752264434879955,"134":0.028392918942891334,"135":0.033613012939279326,"136":-0.08797921826179862,"137":0.0030267880856026668,"138":-0.003972884134750999,"139":0.02350465169998719,"140":-0.02210147944778794,"141":0.0004094346209774948,"142":0.023920603595123314,"143":-0.011296901314658441,"144":-0.03921914887807406,"145":0.0027458404416779657,"146":0.07940935665075298,"147":0.02049609392835821,"148":0.0016010877301183277,"149":-0.03572872368251916,"150":0.015185243965761106,"151":0.036871839371777446,"152":0.014281372677995799,"153":-0.01566366807060863,"154":0.03169139343479437,"155":0.007601732347812775,"156":-0.07350127469054756,"157":0.042604580779846433,"158":-0.004604536684192719,"159":0.012228650063798665,"160":-0.006414301875988057,"161":0.04088460872488934,"162":0.039190766775582614,"163":0.1011142984102693,"164":-0.07301493665982992,"165":0.038609150560264045,"166":0.0732440646271615,"167":0.0020755232925111894,"168":-0.028480604588740712,"169":0.1155921441645987,"170":-0.027023184588590366,"171":-0.04213820849599145,"172":-0.0290236889465475,"173":-0.06750363782031481,"174":0.09577455025560522,"175":-0.055376367786107446,"176":-0.06288706755582672,"177":0.028311250965413787,"178":0.000045435662992136934,"179":-0.00406722267807033,"180":0.016667006161124317,"181":0.1056250039234218,"182":-0.021875365456872117,"183":0.010809129558201066,"184":-0.03826005736242915,"185":-0.0034924429006265474,"186":-0.052250059971308924,"187":0.08613130910875835,"188":0.17484293775650125,"189":0.06077468550037562,"190":-0.013383628977401623,"191":-0.020046681115038913,"192":-0.07537819042677595,"193":0.046419947476044776,"194":-0.013375104335738193,"195":-0.025311050891303043,"196":-0.005127090981160952,"197":0.027529473786670713,"198":0.022355490570718402,"199":-0.01940692270989776,"200":-0.023130722600807566,"201":-0.012319591279469466,"202":-0.04903777885629326,"203":-0.060953134503153636,"204":0.0035381047980359913,"205":0.03791936302949098,"206":0.0355696910730305,"207":0.09619146341162012,"208":0.080312432851723,"209":0.023356786440615042,"210":-0.02634690999159658,"211":-0.05279405429931208,"212":-0.006877365739596625,"213":0.05438797050429171,"214":-0.04019838573972864,"215":-0.08121362806413877,"216":0.04612255494268999,"217":-0.025016163846835634,"218":0.03927363991852538,"219":0.029299921448929386,"220":-0.05540571916771942,"221":-0.02717693665855418,"222":-0.020626721739306506,"223":-0.059330706284893335,"224":0.04130148073559096,"225":-0.020682721595705188,"226":-0.0016834294570464853,"227":0.010236623399465256,"228":-0.0675977145496485,"229":0.024925910226902697,"230":0.06182053167260292,"231":0.04688778794628703,"232":-0.10632219659278908,"233":-0.021550709863370925,"234":0.09480756969732504,"235":-0.0513723319069381,"236":0.021917523371212826,"237":-0.08004949239690819,"238":-0.04135950268917112,"239":-0.02464749157301336,"240":-0.01949293659934352,"241":-0.0660100710982441,"242":0.029360755867372152,"243":0.012375086217370405,"244":0.010944435121322007,"245":-0.030988207819284404,"246":0.01924531418084974,"247":-0.002240028338418548,"248":-0.0026765125432619353,"249":-0.007891093556158003,"250":0.05514673924570071,"251":0.09397021372205537,"252":0.05900725763419019,"253":0.0692811498229143,"254":0.0313995053859244,"255":0.08408269479332577,"256":0.07977409810003168,"257":0.04338339813024144,"258":-0.0013390184923093333,"259":0.07043426783537463,"260":0.009393279843367594,"261":0.08978960467350902,"262":-0.06542663583901306,"263":0.015141605468775379,"264":0.01968384575670321,"265":-0.009875778223852933,"266":-0.04686016712530444,"267":-0.0009421868053258012,"268":0.06711942674062074,"269":-0.03758204849784317,"270":0.005937955029683449,"271":0.007369895720309961,"272":0.01104190823845077,"273":0.025261675359108615,"274":0.00354061726282963,"275":-0.017037379550618157,"276":-0.01652298060163713,"277":0.0410095158402247,"278":-0.011165328463372957,"279":-0.017921067104133277,"280":-0.07866663236498156,"281":0.02364378319367752,"282":0.04128516877872959,"283":0.023518538899700195,"284":0.05261280751539793,"285":0.09930451834072368,"286":-0.06922235556274424,"287":0.10371483250953757,"288":0.010276641378866656,"289":0.03864787570580537,"290":-0.008714487351264018,"291":-0.02668187181230993,"292":0.054494570960722195,"293":0.03562163407095462,"294":0.05522701053382931,"295":0.04475003348442804,"296":-0.004711454668411643,"297":-0.10828732943455412,"298":0.04889183787167831,"299":0.003105830695419662,"300":-0.029502337978840224,"301":0.017443756535744342,"302":-0.022998545650923023,"303":0.09075880296800073,"304":0.04012323779362237,"305":0.04553946318673515,"306":0.01338230802783016,"307":-0.018593351960929646,"308":-0.0827699196841487,"309":-0.03314774720566575,"310":-0.004397852706314665,"311":-0.09924497976975172,"312":0.04268216107022293,"313":-0.011516881464066443,"314":-0.014009337451108475,"315":0.014710239401128665,"316":0.021469758596894394,"317":-0.03157963163836869,"318":0.09546740028143427,"319":0.008278446758633144,"320":0.03179275217510377,"321":0.010645551673193367,"322":-0.01787493664714065,"323":-0.02102496330447468,"324":0.018348651468584973,"325":0.05554225261914782,"326":0.06426565190064112,"327":0.05043785840050966,"328":0.016271183797013443,"329":-0.017456410545347013,"330":0.07395018043024457,"331":0.01223363180149666,"332":0.06321199003261732,"333":-0.03329997007851522,"334":-0.04990442142306206,"335":-0.017281521923088777,"336":0.01194732363787569,"337":0.028471510537273214,"338":-0.031141455083210236,"339":0.022489922443971046,"340":0.029917994212676397,"341":0.09709446942329324,"342":0.07157217922354152,"343":-0.05593467633214916,"344":0.06685686562327689,"345":0.01092230775404039,"346":0.04763575454872968,"347":-0.09259646139405468,"348":-0.027998243919627835,"349":-0.04477009055231471,"350":0.00807162147799776,"351":-0.04991125507528785,"352":0.07686876145717933,"353":-0.06070006978749301,"354":0.047512323484981,"355":0.008831648986696387,"356":-0.025140777516829697,"357":0.012540900720185124,"358":0.04507160657228124,"359":0.01852588383649082,"360":0.040869232951977245,"361":-0.016513952556956132,"362":0.018138362512405568,"363":0.016996591581745248,"364":-0.09128780218023146,"365":0.11348230202025426,"366":0.08202485539894692,"367":-0.06500010904549071,"368":0.028341902256446724,"369":-0.03086639500253366,"370":0.06358548502525545,"371":0.011482739816506108,"372":-0.0702600875733801,"373":-0.00732387571350221,"374":-0.041006220567102146,"375":0.10074746681137885,"376":0.006446476743369821,"377":0.010337451596852919,"378":0.02179426656097943,"379":0.05554977568543586,"380":-0.0019558013206952725,"381":-0.01641600402525757,"382":0.02197387005947919,"383":-0.02342173589570738,"384":-0.058263401409576226,"385":-0.028589122590128,"386":0.050679335369666685,"387":-0.042900029887091504,"388":0.03187062608192547,"389":0.03792811600124502,"390":0.023492708905978803,"391":-0.0668730001522681,"392":0.05635042821176046,"393":0.08439868480892684,"394":0.018626863914264238,"395":-0.06170194876611548,"396":-0.018368905102619414,"397":0.011353329977526335,"398":0.03390718931156661,"399":0.014198752546644614,"400":-0.08858525813599895,"401":-0.033887809916925894,"402":-0.00008272677680378522,"403":0.012002649923895502,"404":-0.04543245208831279,"405":0.01659784968440003,"406":0.003022664388748499,"407":-0.04781642840753739,"408":-0.02875684125338017,"409":-0.07519873573080313,"410":0.01065862576957912,"411":0.0480689635881528,"412":-0.035913972573486684,"413":-0.056567569484115905,"414":0.003535723664541638,"415":-0.03367643806762307,"416":-0.07810796645408932,"417":0.03170594848806091,"418":-0.06589336141133528,"419":0.011237679475511035}},{"sx":1,"sy":1,"depth":420,"w":{"0":0.06685332456650947,"1":-0.018568534091445384,"2":0.028148321328444362,"3":-0.01979112157044359,"4":-0.04118579040258178,"5":0.0005995756727758948,"6":-0.08395133418602711,"7":-0.0022681235552325677,"8":0.005365001040173029,"9":-0.013405740476796619,"10":-0.053430179591656336,"11":0.025548013599749272,"12":0.0292778346351809,"13":-0.052856052845699546,"14":0.009287160601903457,"15":-0.03902608914425772,"16":-0.12536257483387112,"17":-0.02474437914241102,"18":-0.006938094279356055,"19":0.08119655097596895,"20":0.017223992937210823,"21":-0.010813532091691185,"22":0.09151481915122643,"23":-0.05008699171922998,"24":0.06787213902177643,"25":-0.019113866349870678,"26":-0.02705201922495044,"27":-0.009690264013526689,"28":0.034831566943021995,"29":0.009229323223744989,"30":-0.08272313158622942,"31":0.0166024250515283,"32":0.02559651313710848,"33":0.06093377741430789,"34":-0.06566391822990873,"35":-0.06595418296778188,"36":0.06779456636587582,"37":0.02264500475141697,"38":0.0188897511475886,"39":-0.07111413747625735,"40":0.025336738941986788,"41":0.0971385302389028,"42":0.04955224644386748,"43":0.002035966956469063,"44":-0.01300942725778545,"45":-0.06269079404308756,"46":0.010089945423316747,"47":0.046330645399619605,"48":0.01216258673457977,"49":0.009073332778103071,"50":0.014187968018419742,"51":0.023876165797527354,"52":0.05170594370225531,"53":-0.00303153345655388,"54":0.018160324085824735,"55":0.02417482538766785,"56":-0.04088617000263691,"57":0.04439705912619535,"58":0.01419763922562592,"59":-0.026576637726778995,"60":-0.052055088865042114,"61":-0.02517650066535677,"62":0.080951275451362,"63":0.07482670558500348,"64":0.03681403344930752,"65":0.02966674419094134,"66":-0.06336992357394398,"67":-0.019159626209558547,"68":0.017964145259805313,"69":0.041421708551170895,"70":-0.026894828992018515,"71":0.04454532802224154,"72":0.03804915198935799,"73":-0.008577162764457618,"74":-0.030552358735216927,"75":0.01782372921629973,"76":0.0012904814643307269,"77":0.018194877698723324,"78":-0.024453631447053065,"79":-0.015975399882552175,"80":0.00010516407251525431,"81":-0.008834665689331667,"82":-0.05745924132764082,"83":-0.1382326645311937,"84":-0.12375849616207832,"85":-0.0280514655357898,"86":0.09252972637011463,"87":-0.006125636511086291,"88":0.024931348439536618,"89":-0.05450766912317055,"90":0.0408223254346733,"91":0.01362263425797024,"92":-0.06947643323028194,"93":0.022912805673506783,"94":0.055457019157356006,"95":0.030671194644327254,"96":-0.02671742784657003,"97":0.043027214862528126,"98":-0.009091177985554743,"99":-0.06108200570580543,"100":0.03263170346968717,"101":-0.05200679610584891,"102":-0.0432235950067615,"103":-0.01742982760807937,"104":0.03154954854476119,"105":-0.0751305285179273,"106":0.043377080218713795,"107":-0.047409178847830566,"108":-0.019831398169963096,"109":-0.02308870121421817,"110":0.013953245498186297,"111":-0.03136521965153772,"112":-0.007969806418125119,"113":0.02792916244449943,"114":0.02563658585922137,"115":-0.0034277157226254656,"116":-0.06913153332115148,"117":-0.02201464215101967,"118":-0.038557527825149145,"119":0.018594227818349872,"120":0.08861314165819358,"121":0.09582615548894581,"122":0.007175113646260129,"123":-0.012780922253986348,"124":0.01678579994987558,"125":0.005160744751318774,"126":0.05691083094029084,"127":-0.01768197137034386,"128":-0.08625957522182863,"129":-0.024229137417067094,"130":0.07080428897786857,"131":-0.05502439922244583,"132":0.04535608445389476,"133":-0.061192824319393165,"134":0.0269141691836884,"135":0.05312743299979274,"136":0.010755521491300742,"137":-0.05242928264122868,"138":0.020450974843022624,"139":0.09136522584963862,"140":-0.09967734062142562,"141":0.008038092538827235,"142":-0.06553372733622717,"143":-0.01776760180538518,"144":0.05565979328226598,"145":0.0797117137772697,"146":-0.0017978580750978362,"147":0.04112330710525781,"148":0.06271276727392958,"149":-0.0194929555349355,"150":-0.0875368756047938,"151":0.04603563144957568,"152":-0.05957512740049419,"153":-0.03390058004431875,"154":0.053626060934707974,"155":0.014661782547312157,"156":0.009705404586105257,"157":0.030728494357542924,"158":-0.07903587712166908,"159":-0.019485893835548242,"160":0.017129766041399846,"161":0.08166371300946618,"162":0.02063303670979684,"163":0.031419248708469044,"164":0.032612327515640624,"165":-0.013239135088528552,"166":-0.025519053306080307,"167":0.0023678392243506228,"168":-0.04665653307837529,"169":-0.016772837593126776,"170":-0.04978719033515354,"171":0.1072375189753959,"172":-0.016168473193871172,"173":-0.0004216825616838842,"174":0.07390667592379942,"175":0.04633197012745922,"176":-0.018868256864532085,"177":0.04516564906427901,"178":-0.006967891006200503,"179":-0.02505820263705041,"180":-0.02810064500964825,"181":0.03568857134376949,"182":-0.03961227842455991,"183":0.04841007955085646,"184":-0.03168067137669325,"185":-0.05599119577985684,"186":0.006248459519095832,"187":-0.028733980373732693,"188":0.0420476502188743,"189":0.016112828626631187,"190":-0.03280884248469114,"191":-0.009910546425038042,"192":0.09350381851293288,"193":0.02941890862439689,"194":-0.03187603145231321,"195":0.026810767325570653,"196":-0.05271815940171211,"197":0.018680888228586753,"198":0.058011342645565324,"199":-0.07158564359739839,"200":-0.001953932895161203,"201":-0.01890766003749127,"202":0.05346612891070193,"203":0.017421100485834215,"204":-0.03366357025624319,"205":0.06059197861234871,"206":-0.059656074953251426,"207":-0.12465337189071,"208":-0.07582341865873296,"209":0.053837425708712784,"210":0.028560974443733667,"211":-0.011841450361872894,"212":-0.027177581953868123,"213":-0.07391406519572477,"214":-0.018210748398969627,"215":0.04752093141371774,"216":0.13116718145893194,"217":0.0017551430192207084,"218":0.1579424207989617,"219":0.06786672303690648,"220":0.06583173332067695,"221":0.01313408062749269,"222":0.06212471167241448,"223":-0.003990837194210023,"224":0.06910921293668966,"225":0.0074615679637491,"226":-0.030056609971514367,"227":0.03602368738991811,"228":-0.0045458414212154056,"229":-0.03529967165859136,"230":-0.04625221311451652,"231":-0.030148419027104467,"232":-0.08633014160648665,"233":-0.03346206330203545,"234":0.04978974843608603,"235":-0.08391030674523636,"236":0.02629092878615958,"237":-0.05419622712545317,"238":-0.017235220870239303,"239":-0.023752729978844603,"240":0.052703666041765844,"241":-0.06420486712487493,"242":-0.08931229895197008,"243":0.04642960075212004,"244":0.014421909671880328,"245":-0.07822899100073956,"246":-0.0823089042931487,"247":0.028646602698203714,"248":0.09307400033377676,"249":0.00305862538177637,"250":-0.050635941695522775,"251":-0.06701554345940393,"252":0.004036158095205524,"253":0.009378779582056187,"254":-0.027139651275745892,"255":0.07156096480069794,"256":0.09762998178311144,"257":-0.15041481369469675,"258":0.031061862561945687,"259":0.04029906376477238,"260":-0.010114972683250805,"261":-0.019490573211148884,"262":-0.014221123312806899,"263":0.0023439705299340774,"264":-0.07584372231928486,"265":-0.02571200007262206,"266":-0.1256225646419405,"267":0.010592671920607527,"268":0.05492981381158828,"269":-0.011437991380109485,"270":0.023346019366517284,"271":-0.11532982070262006,"272":0.04905665613616538,"273":0.06959643663872836,"274":-0.04401808222647961,"275":-0.039017788475085566,"276":-0.0010532385442857974,"277":0.018133875053684734,"278":-0.06595368054022839,"279":0.023201655675341104,"280":0.014748164124544055,"281":0.0778382427668587,"282":-0.04037745426186293,"283":-0.021243238521178553,"284":0.06890862083694753,"285":-0.040784142174715744,"286":0.02364312350386231,"287":0.08444844823244156,"288":0.030498373961087257,"289":0.025455472659813353,"290":-0.008710140276905524,"291":0.07905034355816498,"292":0.13388463007924978,"293":-0.006136809789875281,"294":0.005961066838633208,"295":-0.029981480583759573,"296":-0.020042646435490634,"297":0.03145394627740198,"298":0.03211456413506993,"299":0.018105642436114473,"300":-0.023128490133573952,"301":0.05370084348349577,"302":0.016964417231056014,"303":-0.07527861268769447,"304":-0.0515262273116575,"305":-0.04954340577928135,"306":-0.016743503642304276,"307":0.015524497675141932,"308":-0.026888311451031276,"309":0.07091115692061466,"310":-0.05817358972776992,"311":-0.1280762192521098,"312":-0.0009864549929009697,"313":0.04614382489316388,"314":-0.03724955520623433,"315":0.02288622755118751,"316":-0.007801518490080762,"317":-0.018508507523360293,"318":0.028461587339086325,"319":-0.019450141954873875,"320":-0.042894293664451834,"321":0.02584376962927465,"322":0.022828279370271272,"323":0.034604260939173896,"324":0.03461430703985655,"325":0.02221610946258137,"326":-0.06974049656167942,"327":0.008450244836952225,"328":-0.031897187680016724,"329":-0.011412823173063911,"330":0.0044692464540050545,"331":0.011377194244508228,"332":0.022861489559517438,"333":-0.0321362488979769,"334":0.06293932276485892,"335":0.05381481352186345,"336":-0.044939500467532624,"337":0.02577608468549409,"338":-0.06359061558335276,"339":-0.00488989875779805,"340":0.03305542155020795,"341":0.0036640186063138006,"342":0.044849330505776046,"343":-0.006294794340246092,"344":-0.012744890867428036,"345":0.06137204996623301,"346":0.04548001983174778,"347":0.014338145265768622,"348":0.03179209471543661,"349":0.04690247632848458,"350":-0.10040071973313998,"351":-0.02667677531035568,"352":0.022911233723506674,"353":-0.014975401367128861,"354":-0.04299210281659929,"355":0.029270341638887334,"356":0.03985882510261624,"357":-0.04961932591895576,"358":0.0045955972217223,"359":0.031036628576814083,"360":0.016261015165946,"361":0.006851402891017425,"362":0.07010801185829867,"363":-0.11218343606814507,"364":-0.038021582261840256,"365":0.09474124371494753,"366":-0.023814597777723972,"367":0.04129176053483719,"368":-0.04862495108668411,"369":0.06266963929867157,"370":0.03852323168354211,"371":0.06756385117433394,"372":0.05994525294139946,"373":-0.08770633236747825,"374":-0.0444167795103065,"375":-0.004206317295815667,"376":0.06822991631435782,"377":-0.08618487926909912,"378":0.0001613379742252136,"379":0.02917967388163248,"380":-0.034150095152239004,"381":-0.006296848941773402,"382":0.041659318321852594,"383":-0.0456175942752143,"384":0.025768492299914864,"385":-0.013613818746582615,"386":-0.08762722043388742,"387":-0.01666419352734473,"388":-0.09691288567010348,"389":0.004827050129658442,"390":0.08889117950671972,"391":-0.02151989252933251,"392":0.05120485601350174,"393":-0.04925183472998515,"394":0.048875595401271725,"395":-0.010726069721948154,"396":-0.046425186324006544,"397":0.0020486966703551967,"398":0.011628600244916172,"399":-0.012764691109723222,"400":-0.01332558699621645,"401":0.039435466739019195,"402":-0.0534439693805361,"403":0.011942703345297762,"404":0.012795087635000254,"405":0.0073988985308277985,"406":0.03080092008938062,"407":0.01367605830776698,"408":-0.007761195661532592,"409":-0.05090517523098603,"410":-0.02645501832935103,"411":0.07480292666564058,"412":-0.029489268184996694,"413":0.07121581139181447,"414":-0.06698154904210628,"415":-0.10775665151357433,"416":-0.07015042467125467,"417":-0.09143205846379984,"418":0.03669839126048513,"419":-0.042201086151730315}},{"sx":1,"sy":1,"depth":420,"w":{"0":-0.10551269881262033,"1":0.0032018401910435105,"2":0.15491881282225115,"3":-0.09751530031270397,"4":0.07354079982959554,"5":-0.010289256674561357,"6":-0.10725120076135904,"7":0.00955562150354632,"8":0.003341034888217221,"9":0.06113073379073375,"10":0.12718445908960757,"11":-0.023596640589182986,"12":-0.04934642325639608,"13":0.03973914519238454,"14":0.030380395054187027,"15":-0.10183987338728569,"16":0.007796632985130118,"17":0.059476169663132517,"18":-0.0012371176512728397,"19":-0.06219575893750875,"20":0.0008397236166022117,"21":-0.04032776612068397,"22":0.0635736353855004,"23":0.09341547772201558,"24":0.0017563234600119645,"25":0.004426425387632549,"26":-0.06849603500693048,"27":-0.09338086269384283,"28":0.10016064261890002,"29":-0.02963606310609193,"30":0.027729332283635326,"31":-0.10974521620095432,"32":0.036046323377265266,"33":-0.00584254066070428,"34":0.051938537324022024,"35":-0.06595926727973059,"36":-0.04501579121809164,"37":-0.056867591519495685,"38":-0.02756154647801021,"39":0.05331608119591561,"40":-0.018805173425302222,"41":-0.0391523651284123,"42":-0.020285444930375606,"43":0.01849412688385519,"44":-0.02729848316054201,"45":0.026388019953772296,"46":-0.005213055105410602,"47":-0.02080226219779241,"48":0.0301740458307722,"49":-0.04270159556517617,"50":-0.04517406718683223,"51":-0.006370095060123825,"52":0.05637450335513673,"53":0.0011933372285774784,"54":-0.05791886447720698,"55":-0.06240669458288656,"56":-0.05277163215831452,"57":0.0055496517125804435,"58":-0.019523860930608587,"59":0.05565579234521792,"60":0.01859932219880419,"61":0.03364270945077425,"62":-0.12702551037736604,"63":0.00845087863322652,"64":-0.0721821001717191,"65":0.0685464543708885,"66":-0.0015796196205321517,"67":-0.12166196481466514,"68":0.01007640831688983,"69":0.02028173670466799,"70":0.05387265019320865,"71":0.033352213048195356,"72":0.043225910437778695,"73":-0.07482855799985733,"74":0.02266663645033271,"75":-0.06451967021064438,"76":-0.00457914717266769,"77":0.07526435951944514,"78":-0.041232949201925814,"79":-0.016328929942778563,"80":0.0258029621312723,"81":0.09185399218746228,"82":-0.05334582342200023,"83":0.009756445198169343,"84":0.007218595465411339,"85":-0.003932751978109937,"86":0.0778222152392582,"87":-0.01938325773807295,"88":0.07262896526789078,"89":-0.04049957620969986,"90":0.0481800035785928,"91":0.038921734339655754,"92":-0.005848675872398985,"93":0.03136086292215743,"94":-0.01860511954838624,"95":0.12824264263493834,"96":-0.009188488235801255,"97":0.0416994209736536,"98":-0.02073410611905666,"99":-0.03460522742561441,"100":0.03583519050370519,"101":-0.02155893254014115,"102":-0.03583022960785214,"103":0.0508726918063617,"104":-0.06440789863628688,"105":0.03634278991807669,"106":-0.027123174729107576,"107":0.03455945213417454,"108":-0.02386004998702845,"109":-0.030702633392412398,"110":0.058019549061981715,"111":-0.07345735879626566,"112":0.0138368904900017,"113":0.01969102356964769,"114":-0.006950142855946619,"115":-0.05840544608305537,"116":-0.003961523969522381,"117":0.01984707267934625,"118":0.019156511973620175,"119":-0.05506150260890026,"120":0.02316785265811249,"121":-0.019101787257362467,"122":0.05372611197078468,"123":0.04006278430818661,"124":0.015113900082395606,"125":0.0035397925983961286,"126":0.005703454457607621,"127":0.017165822782055546,"128":-0.12273427290610434,"129":-0.06119307184809574,"130":0.04764623189015896,"131":0.027714340291644792,"132":-0.08182069639897167,"133":0.024786811584271977,"134":-0.05282711364121503,"135":-0.13771120442968487,"136":0.010365471949546207,"137":0.07508792442754186,"138":0.015537035287928014,"139":-0.022008896227104068,"140":0.025685740658659407,"141":-0.011295235466238868,"142":0.09972647980906961,"143":0.040184804586549334,"144":-0.02623567515728641,"145":-0.023043513092582683,"146":-0.03111254346891601,"147":-0.006016424293585634,"148":-0.045271885585119916,"149":-0.037857422383727656,"150":-0.06128183993351745,"151":0.04496487058647214,"152":-0.07428156555007301,"153":0.005788614212057819,"154":0.0012049635010509534,"155":-0.02325128704855227,"156":-0.057433975625096584,"157":-0.011923008102344692,"158":0.01548104889337933,"159":0.015265085587887722,"160":0.02713021409308356,"161":-0.05638791279814424,"162":0.10422871070370217,"163":0.031986982971971036,"164":0.055166970203220145,"165":0.012355851589712972,"166":-0.047451096795591,"167":0.0782227258580438,"168":0.07143326937639612,"169":-0.05590723294003144,"170":-0.13232794343341545,"171":-0.06246557800258081,"172":0.07190712772980495,"173":-0.08265836874030476,"174":-0.02429101866938673,"175":-0.06065544751350483,"176":0.0012056220608910931,"177":0.02283471605048644,"178":0.012220262293194884,"179":-0.006783690610013512,"180":0.06329162518130053,"181":-0.0021777400560120284,"182":-0.032714560418704505,"183":-0.1030668133538085,"184":-0.025077414628416735,"185":0.01893940531172285,"186":0.0010538086990594484,"187":-0.005181783486097346,"188":0.0367850755067583,"189":-0.020107049649592416,"190":-0.014475840721819825,"191":-0.02549295538553172,"192":0.018489364336240186,"193":0.061362604531662146,"194":0.04224067558515823,"195":-0.02120730829402725,"196":0.03636596578774798,"197":-0.10618994838664439,"198":-0.020502966031032785,"199":-0.0667803693030695,"200":-0.034694961409052726,"201":0.007463299293532548,"202":0.07162340211800396,"203":0.0414716247863582,"204":-0.047637155012226796,"205":-0.07208003061553253,"206":-0.06929492164309624,"207":0.008611940638809249,"208":-0.06560874566034697,"209":-0.0022452259428720287,"210":-0.12285505088327835,"211":0.052292030894662236,"212":0.05135770145468649,"213":-0.08860538743795021,"214":-0.010282896442468973,"215":0.053047830001920496,"216":-0.06161886499119994,"217":-0.014381184541355684,"218":0.04416660574028722,"219":0.02406265015680505,"220":0.01083770381785293,"221":-0.053942566919129804,"222":0.04896491684367789,"223":0.01113882605278325,"224":0.07470966533627789,"225":0.02797509591755612,"226":0.006143152937138002,"227":-0.13419712726545577,"228":0.05903283899962601,"229":-0.023720787060990414,"230":-0.0038391971428614743,"231":0.0018719410867175058,"232":-0.013320765848961875,"233":-0.014092778585477533,"234":0.021934168783911006,"235":-0.09601673944652085,"236":-0.007702294755817864,"237":-0.03618787509375727,"238":0.039442567364086516,"239":-0.09382597180908805,"240":0.0600070465750967,"241":0.017674067413137356,"242":-0.026267998556030143,"243":-0.02278518950901616,"244":-0.09230145045412817,"245":0.07618605053531272,"246":-0.07141549987349281,"247":-0.03992539658605199,"248":0.013302686036357961,"249":0.04971286467931307,"250":-0.031213329018141125,"251":-0.01229286993795959,"252":0.055858958485905275,"253":-0.06676606443136224,"254":-0.006962638440843353,"255":0.04993869699849646,"256":-0.015632704002134058,"257":-0.03907729987039731,"258":-0.022876665822215283,"259":-0.05084042594161313,"260":0.021358426571754217,"261":0.026438261068147867,"262":-0.0294361266377564,"263":0.08227760100344343,"264":-0.025900958350663656,"265":0.010254322433778683,"266":-0.0317868060329574,"267":-0.024482267386495053,"268":0.00816922629063255,"269":-0.058318000913165614,"270":-0.0008881304628608668,"271":0.07114015238344915,"272":0.007836589085220754,"273":-0.02126429493883764,"274":0.06371842797154254,"275":-0.03677450498424611,"276":0.049907925999801706,"277":-0.07436781803153043,"278":0.04548984339364597,"279":0.020024607898284,"280":0.018740046082277455,"281":-0.020582070941237686,"282":0.013800469616617211,"283":-0.002438566352241384,"284":-0.06220390938443461,"285":-0.03771000711816269,"286":-0.06502887013829803,"287":0.02136161323406774,"288":0.04635231883080984,"289":-0.013340474625398604,"290":-0.06899429049762949,"291":-0.054538961156271194,"292":0.0361185723210787,"293":0.12024612994641161,"294":0.03850652317745705,"295":0.0009949419076108578,"296":0.0355074754419279,"297":-0.02790820681946146,"298":0.010956276159470174,"299":-0.003828450329229795,"300":0.004662629311871982,"301":0.0796170739927441,"302":0.09385918358296087,"303":-0.03464718027320773,"304":-0.014351665597274832,"305":0.0808404207778637,"306":0.004246119913919479,"307":-0.019582822825721723,"308":0.05334787338031498,"309":-0.024225933874964165,"310":0.033616559200097096,"311":-0.010578027896305518,"312":-0.025131648043107344,"313":0.053437719720472385,"314":0.05558403115849501,"315":0.046726195262206886,"316":0.10070852263406732,"317":-0.02413634722565074,"318":-0.01149090674946514,"319":0.015106073187592788,"320":-0.02706572629777409,"321":0.006559251267621091,"322":0.04040109150364462,"323":0.08689907103779795,"324":0.02314888616409173,"325":0.007240658971749393,"326":0.008455381116466081,"327":0.012470100525631354,"328":-0.030989734431624946,"329":-0.023350839615538292,"330":-0.030468397856745218,"331":-0.04952030554780086,"332":-0.019433759158779634,"333":-0.057190793369206294,"334":0.03919429850891074,"335":-0.13025612094023173,"336":-0.028883449918986635,"337":0.03496801023748391,"338":-0.027929262495529412,"339":0.06604913809514908,"340":0.052956187357936176,"341":0.054142819607719404,"342":0.09066793416525998,"343":0.018515044767487464,"344":0.03593435267674479,"345":-0.022462966896239778,"346":0.030468869340767833,"347":0.050935187573832585,"348":-0.02387172212101183,"349":-0.019172332203150132,"350":-0.03210676748076496,"351":0.0037994437191995823,"352":0.045266790201802035,"353":0.06537114991241201,"354":-0.021650157132506252,"355":0.055933953456924125,"356":-0.03783381499241365,"357":0.01896853070112576,"358":0.007128584427064625,"359":0.0236216162116578,"360":-0.004911306484111327,"361":-0.09342880127034894,"362":-0.05266051557619483,"363":0.031780432328596585,"364":-0.006938701642323244,"365":0.04051725024579511,"366":0.08635165379640704,"367":0.05336683235190819,"368":-0.005237724705850359,"369":-0.015538143450281443,"370":0.02880269534926761,"371":0.01899972955408299,"372":-0.03431576256700153,"373":0.04096732198887173,"374":-0.0001905739914540547,"375":-0.01894306080184556,"376":0.02517364498727306,"377":0.030866323965992915,"378":0.04708276394287098,"379":0.046517917480970956,"380":0.07352482433645416,"381":-0.022694108318592702,"382":0.024318310201532634,"383":-0.06553961388541044,"384":-0.10751606890083651,"385":-0.01598072808187638,"386":0.08068886950882723,"387":-0.04461415254069965,"388":0.006811461100576312,"389":-0.08471455479206684,"390":-0.03071579397557782,"391":0.03728458209209775,"392":-0.056771611356467244,"393":0.10697934930461145,"394":0.050308407688113156,"395":-0.017446535372141022,"396":-0.06180959479046109,"397":-0.08590630622466139,"398":-0.08659552720402805,"399":0.057418373620175496,"400":0.015040446302263213,"401":0.07299174178887956,"402":0.026101007857701464,"403":-0.02196625570977436,"404":-0.014044853294110156,"405":-0.0076098422089254615,"406":0.008640591191100538,"407":-0.09712825783424839,"408":0.008543776241641831,"409":0.04707699835506652,"410":0.08192744307970704,"411":-0.07683374414919474,"412":0.02516945676206454,"413":-0.10356094178823619,"414":0.02519986958392574,"415":0.03884157773775917,"416":0.005106504290430385,"417":0.04484061846604381,"418":-0.02911086256297415,"419":0.06599273555933231}},{"sx":1,"sy":1,"depth":420,"w":{"0":-0.03773415027560841,"1":-0.02437374100395349,"2":0.06586579024752509,"3":-0.06201395848345831,"4":-0.12136549900009239,"5":0.15390693987082438,"6":-0.02202850050632034,"7":-0.05530723022348167,"8":0.02598934880292315,"9":0.013127623519785409,"10":-0.004901541321568306,"11":0.04024566801259364,"12":-0.08502289567031074,"13":-0.026114146285004674,"14":0.03355465786589054,"15":0.01413306346148015,"16":-0.0417447099254563,"17":0.01633813203422004,"18":-0.04110387239497193,"19":-0.12986885279180393,"20":0.02816227670531858,"21":-0.08394760171848016,"22":0.005761375848116012,"23":-0.05262871722034322,"24":-0.0019191910744599618,"25":0.03445762660972173,"26":0.009554545869529628,"27":-0.04042791428155105,"28":-0.05417424764268908,"29":-0.01561483773749671,"30":-0.030108579878230794,"31":-0.08911450244397601,"32":-0.02867563262716224,"33":0.0887961340098146,"34":0.012706214214827788,"35":-0.012522272812500464,"36":-0.03157042178096891,"37":0.017817813152597783,"38":0.02862766402231821,"39":0.00033485313353676116,"40":0.01900671522761393,"41":-0.04094815453671173,"42":-0.02861119371264682,"43":0.05491330792323959,"44":0.01000643653668663,"45":0.16669756875230612,"46":-0.0034729630123759613,"47":0.0185556596528676,"48":0.017494781165656562,"49":0.01935957508415016,"50":-0.005201581069075969,"51":-0.00874373920251905,"52":0.038190401883536985,"53":0.04108615022133606,"54":-0.02233237964824609,"55":0.007286501430669375,"56":-0.08999160361465945,"57":0.05024937112577179,"58":0.010282155134507032,"59":0.024714556957318837,"60":0.006081739491115367,"61":0.07285792187512437,"62":-0.049577183976416445,"63":0.03338148280414139,"64":0.024350387828919212,"65":0.06027193272035632,"66":-0.04433937133494055,"67":-0.022615617589913994,"68":-0.0605849784473195,"69":-0.0063664751533600294,"70":0.04445953224332533,"71":-0.13254417698746532,"72":-0.06101345433855589,"73":-0.09884202428488982,"74":-0.10020788581673463,"75":0.08035927663765127,"76":0.03638076720742997,"77":0.023615895200003303,"78":0.026074737511807083,"79":-0.0480715851095072,"80":0.05215118386251594,"81":-0.03428596506555778,"82":0.03588276186920921,"83":0.039142356081427826,"84":-0.040425983568058606,"85":-0.03979103344857368,"86":-0.024084935428136906,"87":0.07535438294425661,"88":0.027352408945744408,"89":-0.07629268312525321,"90":-0.06734618171148354,"91":0.05210287119740612,"92":-0.04745503034676544,"93":-0.034605887819118955,"94":-0.014309425359417099,"95":-0.023584539169995037,"96":0.06246240293813674,"97":0.029792508480783287,"98":0.05579688651036196,"99":0.018596189160386207,"100":-0.10703193013264892,"101":-0.020886035213619324,"102":-0.03064580714025104,"103":0.026206552908928368,"104":-0.03333104115409031,"105":0.004621654565084105,"106":-0.0809990959007948,"107":0.009774536122213625,"108":-0.040021626113800966,"109":-0.04717901625249902,"110":-0.015272894520829977,"111":0.03608813292543489,"112":-0.012763701058944414,"113":0.010242542160464838,"114":0.05982711677011717,"115":-0.0627495917390839,"116":-0.11751971503783006,"117":-0.09596857317323998,"118":-0.0341035292336006,"119":0.005448485305732984,"120":0.01832629748528947,"121":-0.07098756742854884,"122":0.015309279719349847,"123":0.024506960524495594,"124":0.017283215605484115,"125":0.015345718045371647,"126":-0.028971853831897088,"127":0.026208062671367542,"128":0.006097134057356305,"129":0.012560841467660379,"130":0.12059183559489436,"131":0.0857545581722744,"132":-0.03994099684785213,"133":-0.045836625642100316,"134":0.0671314306681694,"135":-0.02720154793970639,"136":-0.02735597190222647,"137":0.030663251698930274,"138":0.060453289872357444,"139":-0.016737276229409157,"140":0.002382483267006358,"141":-0.08661548817116442,"142":0.015379787184971563,"143":0.013187346309322901,"144":-0.07137088523500927,"145":-0.006289824461652665,"146":-0.03235816739238938,"147":0.008638533180714301,"148":0.08537063780234287,"149":-0.08172749061692927,"150":0.10695470995677996,"151":-0.007019031851572693,"152":0.0007187464056540191,"153":0.002413273315412823,"154":-0.018482202282648956,"155":0.1036834637193083,"156":0.08274425334080476,"157":-0.04596181918768634,"158":-0.040889311917275815,"159":-0.018628486574804246,"160":0.00391821393472751,"161":0.10243765897973033,"162":-0.012716224546022123,"163":0.05498796962117981,"164":-0.03775043798094004,"165":0.0786195189570949,"166":-0.002419324918076063,"167":-0.05100929072026327,"168":-0.003568461788188257,"169":0.018959558093767755,"170":-0.10187603838421565,"171":0.020681621679806746,"172":0.025146267975477397,"173":-0.0801511473595322,"174":-0.003674444920175078,"175":0.003244520324315771,"176":-0.015736197650374276,"177":0.04791461275597646,"178":0.003319459596139068,"179":0.01222162761241798,"180":0.1341227836009658,"181":0.10835551591528343,"182":0.01840599544302689,"183":-0.0547391528579081,"184":-0.013212327080816098,"185":-0.03418628961254884,"186":-0.018008111538732878,"187":0.005947878715596037,"188":0.03312667446370088,"189":0.042223265731466675,"190":-0.07091878418398728,"191":-0.004577938153768939,"192":0.0011977114295203132,"193":0.05478644905133178,"194":-0.03923040881975506,"195":-0.009575687600321363,"196":-0.008431034201579162,"197":-0.04562018824838478,"198":-0.07207193011303101,"199":0.06652980444005521,"200":0.016503803689116515,"201":0.03672285196693726,"202":-0.059543798998030424,"203":-0.08343585108482071,"204":-0.06808715706807666,"205":-0.03610076844607941,"206":0.006273800261607329,"207":0.06982883258881586,"208":-0.038800143692020395,"209":-0.03548429408891856,"210":-0.019135279311729564,"211":-0.043898497125959175,"212":-0.07397603716866948,"213":-0.02525477559403188,"214":0.03255534727092857,"215":0.009038447093287267,"216":-0.1126380338330789,"217":0.0906025122078,"218":-0.035615846574682954,"219":-0.05613984893868826,"220":-0.012586353123288704,"221":-0.048199663761685475,"222":0.018403204488232846,"223":0.02313464246587785,"224":0.03466676499408153,"225":0.06259898270340834,"226":0.04525426546265994,"227":-0.06290547510073125,"228":-0.023316530311989332,"229":0.08859511336845632,"230":-0.08415448542486423,"231":0.03491519197984925,"232":0.05032585242535476,"233":0.04763990983555481,"234":-0.048691343570579866,"235":0.04723499816882016,"236":0.0879193869973493,"237":-0.018625351633626313,"238":0.028141494440359512,"239":-0.07448996637980305,"240":-0.07447977180885249,"241":0.00961683758200915,"242":0.012441305194763363,"243":-0.050850265423677724,"244":0.01648980194262185,"245":0.059179247297973414,"246":0.02762201475584566,"247":0.046224221754431076,"248":-0.00011520016285569492,"249":-0.05349950380167281,"250":-0.10249078064622237,"251":0.06325516041389198,"252":0.07145099540210789,"253":0.007433216890915817,"254":0.027276970258953682,"255":-0.03796388496158268,"256":0.025797480934360913,"257":-0.019253593743074407,"258":-0.04395922309973038,"259":-0.018766631423189312,"260":0.007084193730783729,"261":-0.09620528498866016,"262":-0.025228589854027296,"263":-0.023495759595059455,"264":0.01229887112155749,"265":-0.03849049297695917,"266":0.038287552553580045,"267":0.07441765254685272,"268":-0.013855721391815323,"269":0.08785340167839126,"270":-0.05948344568499277,"271":-0.061523292067083124,"272":-0.020956676885692315,"273":0.059570704265429306,"274":0.002760870387112042,"275":0.03664882082742051,"276":-0.009015144911625845,"277":-0.01483725241419474,"278":-0.022771886519595025,"279":-0.06926716331686715,"280":-0.025833882371072526,"281":0.011980445545192734,"282":0.07806649216513066,"283":-0.01886862853128818,"284":-0.0035866256240590544,"285":-0.016264613037935874,"286":-0.004110707816948019,"287":0.012304351853333397,"288":0.09247519974493108,"289":0.0033345414495133817,"290":0.03272897942777719,"291":0.0022168083125368243,"292":-0.020008905787883086,"293":0.007572909075026913,"294":-0.045853247117905366,"295":-0.012774725868678704,"296":-0.014870615092104161,"297":0.031498548436790744,"298":0.0030919155396035253,"299":-0.04447910620610569,"300":-0.07971054438579678,"301":0.05254875830737621,"302":0.03254450543463826,"303":0.022578810917565043,"304":-0.03033368579216068,"305":-0.07364583832448758,"306":-0.011984472213874591,"307":0.11234459891347714,"308":-0.010301548575843701,"309":0.05024278309737909,"310":-0.02565628030772838,"311":-0.08953815081649143,"312":-0.006041956897464784,"313":-0.002844133060005503,"314":-0.03435286962862237,"315":-0.06246692836636259,"316":0.029384206003564037,"317":0.08319445386025205,"318":0.03661188591906095,"319":0.030426131471926077,"320":0.06460538938116517,"321":0.05433652584294752,"322":0.041473195303217844,"323":-0.027769025192407277,"324":-0.017855790714531902,"325":0.04194686953982137,"326":0.030230867147058752,"327":-0.016048076509138035,"328":0.0065551606840548,"329":-0.03212532966368985,"330":0.03618761592426744,"331":-0.06151984141894618,"332":0.061158165556377035,"333":0.001877139737441022,"334":-0.047080841145206,"335":0.039767282063674934,"336":-0.061664755619290676,"337":0.07885683195952618,"338":0.0012606012515269768,"339":0.062215964843317456,"340":-0.040468927487894046,"341":0.03700773828020446,"342":-0.053798478828727,"343":0.019100412417367027,"344":0.08764196049069246,"345":-0.03348937640230386,"346":0.005131899390925643,"347":0.07387306173981777,"348":-0.006208608690292368,"349":0.11229590799511323,"350":-0.05161667211914052,"351":-0.008243395247553308,"352":-0.02911943234088834,"353":-0.014206339737405297,"354":0.025738939808705067,"355":-0.0576419490342802,"356":-0.06549603857990141,"357":-0.04009456259386598,"358":0.021112181041395464,"359":0.029518919543010086,"360":-0.03974235138028555,"361":-0.009911972231939495,"362":0.057360155290539144,"363":-0.04698088727412441,"364":-0.059234448331799916,"365":0.0351555405442881,"366":0.04512250971243869,"367":0.0653626117954271,"368":0.014573898567256854,"369":-0.06676266339636043,"370":-0.06584133855866406,"371":0.01534661371341354,"372":0.0035135619998649848,"373":-0.012246415015434102,"374":-0.05176026397640001,"375":0.0729213768755279,"376":0.030943778610948804,"377":-0.02969174478051918,"378":-0.0033501335767031322,"379":0.008381302918539975,"380":-0.026808711073013358,"381":-0.0706921758697022,"382":-0.013151978757841385,"383":-0.050622620815892645,"384":-0.03243528802242545,"385":-0.08442040762269795,"386":-0.02739847424633898,"387":0.07448470555072013,"388":-0.04308758088100333,"389":0.03669234791866107,"390":0.02514255626361912,"391":-0.02765600084182381,"392":-0.0364265104080314,"393":-0.10197838295999315,"394":-0.04413498411416909,"395":-0.01732625820389896,"396":-0.004696091987778782,"397":0.10170654855976044,"398":0.05267132545028352,"399":0.04544669205480935,"400":0.08392685922015926,"401":-0.07367169737307208,"402":0.06053887849103009,"403":0.056184698926708423,"404":-0.057299895817305775,"405":-0.0831473721440867,"406":-0.04131484405574362,"407":-0.022075209019784797,"408":-0.03838229043228633,"409":-0.025677619427795083,"410":0.03290923867804723,"411":-0.07961264849176794,"412":-0.01993808004169471,"413":0.010760513859379131,"414":-0.06517961894032528,"415":-0.02951463892694001,"416":-0.12263660292967415,"417":0.14961718750621303,"418":-0.10671462999788843,"419":0.02351431045875015}},{"sx":1,"sy":1,"depth":420,"w":{"0":-0.006391238717292793,"1":-0.058785181601978743,"2":-0.03131219299994875,"3":-0.0883006669083495,"4":-0.014801928033195036,"5":-0.034894277334203964,"6":0.027081697411194424,"7":-0.010413889873725485,"8":0.03299432253342319,"9":0.0006063194539759075,"10":0.032336769369730026,"11":0.09024161964789572,"12":0.03552498512912335,"13":-0.029865098959235132,"14":-0.03225446153836847,"15":0.01634525410197449,"16":0.054623143973862,"17":-0.00936103299117172,"18":-0.13334095436351356,"19":0.09116757535596194,"20":-0.01472573256744245,"21":-0.14107295673093984,"22":-0.04953501023833074,"23":-0.04388262889224211,"24":-0.0006540910324168584,"25":0.01855376925835656,"26":-0.06097558624554259,"27":-0.056109063313001584,"28":0.04563303486861818,"29":0.0049298825484128195,"30":0.02383742016635489,"31":0.009584504564803632,"32":-0.012612893211022361,"33":0.043331665373947593,"34":0.03367090139606192,"35":0.06022505999325984,"36":-0.029345279320794622,"37":0.05543842373069144,"38":-0.08558640001366592,"39":0.03434160321043713,"40":-0.011704779385315832,"41":-0.09457130905243012,"42":0.019828725417640063,"43":0.03579312052915812,"44":-0.0130234139556105,"45":0.07371856499826861,"46":-0.021280475565351106,"47":0.07044442294569488,"48":0.07704207709875298,"49":-0.046781649343827836,"50":-0.039157230747084396,"51":-0.005781355591052646,"52":0.04006328613239195,"53":-0.0172300267215628,"54":0.0448654118482125,"55":-0.08061758439300305,"56":0.012569554167819106,"57":0.0405282814437104,"58":0.009975826564214531,"59":-0.010257500349866054,"60":0.03159271113646132,"61":-0.06848895811291392,"62":-0.06335387274858041,"63":0.047612209611987755,"64":-0.005078144171235363,"65":0.003746477379245229,"66":0.06882050936392585,"67":-0.02453608067385742,"68":-0.029886807583095604,"69":0.05011320775208954,"70":0.05235367659120161,"71":-0.05857959815968243,"72":0.001262625194915304,"73":-0.0579700678494109,"74":0.017958032675103888,"75":-0.0333001917230727,"76":-0.032393520004202904,"77":0.04423545543925054,"78":-0.010753943960300903,"79":0.043360559462797856,"80":-0.0927657155436273,"81":0.04106488958503403,"82":0.0503356198172977,"83":-0.023137801760071387,"84":0.013141972430378578,"85":-0.005115589183594749,"86":0.06259864336400683,"87":0.08922624930557987,"88":0.028921912620936893,"89":-0.10596240420912709,"90":-0.08132387259716112,"91":0.0691519464112238,"92":0.12694693938287896,"93":-0.003982053721936982,"94":0.044232111279856046,"95":0.03965572208147588,"96":0.0007437339774883015,"97":-0.0018835423123863097,"98":0.02856085909130221,"99":0.01067594601940436,"100":0.04640386317031248,"101":0.0572197848036844,"102":-0.013170858479638375,"103":-0.025745304808011446,"104":0.018342926729342453,"105":-0.009843618743545118,"106":0.0652694290792979,"107":0.006651301414522181,"108":0.035777067406736834,"109":-0.04570630504232007,"110":-0.006366882349795939,"111":-0.0050364428224127285,"112":-0.0021825332268060526,"113":0.0077429618049088605,"114":-0.0545169964895546,"115":0.011754087202611155,"116":0.0908459230303229,"117":0.05574552414863389,"118":-0.02619670758903599,"119":0.07026586901602833,"120":-0.01182403337446698,"121":0.007499994465078173,"122":-0.03895084683359729,"123":0.003431385498640934,"124":-0.005279228727500291,"125":-0.029277374024003912,"126":-0.06409489290984398,"127":0.02027161559819766,"128":0.06082906235677193,"129":-0.05693436025474031,"130":0.032779580180032734,"131":-0.05136907166095938,"132":0.015964505604890575,"133":-0.046896362720321,"134":0.03956718123223093,"135":-0.002377141535589519,"136":0.09876214322857302,"137":0.009527334114719673,"138":-0.005387115764903404,"139":0.038844103478597715,"140":0.054646670077250735,"141":-0.08488926097002582,"142":0.1158707487928308,"143":-0.02062870920376225,"144":-0.003499527774762318,"145":0.028616395782660023,"146":0.003969906302981785,"147":0.020871111212997548,"148":0.0952122753360387,"149":0.09166005544355775,"150":0.004748164048078737,"151":0.02657180636887328,"152":-0.004565390002616084,"153":0.018748351280720218,"154":-0.010976742846082497,"155":-0.024353016870882073,"156":-0.04440945780506383,"157":-0.03488591882164351,"158":-0.04395612441271213,"159":0.007175888457860462,"160":0.08686574406692008,"161":-0.08479849172347466,"162":0.041093476627217095,"163":-0.019684664499021873,"164":0.02443644913869103,"165":0.11621771619209156,"166":-0.05156146294601173,"167":0.012593175499024696,"168":-0.06367586138103663,"169":-0.01703246143395473,"170":0.07056459104184142,"171":0.03148535216512798,"172":0.0018792492923845852,"173":0.08314642365744532,"174":0.0054639964679001184,"175":-0.01873190610902291,"176":-0.08589664525351036,"177":0.12582375260281278,"178":-0.048433778651623474,"179":0.037526573153043585,"180":-0.0801701797241864,"181":-0.06041156056077156,"182":0.04280252003212024,"183":0.07086979649575931,"184":-0.07890908674407056,"185":0.009620931212702606,"186":-0.07862329766490417,"187":-0.03906438390280795,"188":0.0040077226852922,"189":-0.05708719806039497,"190":-0.005293530527864537,"191":-0.01417540153105815,"192":-0.005580839479969349,"193":0.09523314333166746,"194":0.01523746358604433,"195":0.06233370231459634,"196":-0.018193836891925566,"197":0.05180774658686604,"198":-0.027021175752599415,"199":-0.01910938195253071,"200":-0.01117802047791776,"201":0.03173707743282131,"202":0.04841991194731269,"203":-0.00993847083820678,"204":-0.07124669767020463,"205":-0.04456465924769738,"206":0.020041507023625442,"207":-0.012430748784726721,"208":0.08622596346385555,"209":0.058457363691810815,"210":0.0629242287217655,"211":0.019275760927329706,"212":0.08301310200255398,"213":0.05374093134479724,"214":0.04413442761730967,"215":0.07111369614661336,"216":-0.07867551905978748,"217":0.023589658156384846,"218":-0.0007273351974086938,"219":-0.02029091261943655,"220":0.05072156236647498,"221":0.05076239630252551,"222":-0.036732101998694734,"223":-0.006089957444920154,"224":-0.007566480771612441,"225":-0.006996719790607506,"226":-0.0208387559558395,"227":0.0850416368631883,"228":0.08219971915908533,"229":0.002685349189604473,"230":0.000522709845826439,"231":0.017256588182229575,"232":-0.020733282869180823,"233":0.11396316977477527,"234":0.006543192692214685,"235":0.01802838941798895,"236":0.02089279850403895,"237":-0.038317664173582726,"238":0.02379802422528491,"239":-0.04792189806298539,"240":-0.038686485562764106,"241":0.024112620535678902,"242":-0.03683744487785309,"243":0.03784775338576043,"244":0.07018624590811699,"245":0.07602167752783034,"246":-0.005709017137388356,"247":-0.025592493317742944,"248":-0.060621328359189146,"249":0.017285078329016223,"250":-0.00880918361954561,"251":0.05202725612314973,"252":-0.024849847298962564,"253":0.006022781599299336,"254":-0.04491943625570161,"255":-0.08965653982850075,"256":-0.04888182579820828,"257":-0.0040719476239161854,"258":0.0595965244063643,"259":0.07737125395065425,"260":0.008675579419584616,"261":0.018045905034473776,"262":-0.049949110368460364,"263":0.144542838702642,"264":-0.05313406870861415,"265":0.00459923980032453,"266":-0.009633146317892683,"267":-0.027935432325666542,"268":0.02175962325758948,"269":0.002053461143113977,"270":0.038783985528054774,"271":-0.027953738981967555,"272":-0.004634146443861707,"273":-0.011145297942993682,"274":-0.060807064664233926,"275":0.04394838372306586,"276":0.0008582614588972829,"277":0.0517142001513267,"278":0.042162667300135064,"279":0.024590137575091944,"280":-0.03828591895501104,"281":-0.05607843529370551,"282":-0.007651250147290621,"283":0.026967198159697083,"284":0.015223722168056647,"285":0.016968423103606856,"286":0.005321799097967742,"287":0.07551431012133318,"288":-0.030577088943035756,"289":-0.03392956516361666,"290":-0.05440793623613564,"291":0.02420288400066722,"292":-0.022938212107140907,"293":0.036696214847362255,"294":0.029662784731084288,"295":0.049057078883341876,"296":-0.0447824853128999,"297":0.04928763080067097,"298":-0.062474205103178936,"299":-0.0990321219981835,"300":-0.09776731144337639,"301":-0.06862502170367159,"302":0.0851444267600068,"303":0.06855224145391807,"304":0.1059501293498586,"305":0.005442774805802026,"306":0.013452330302016507,"307":-0.022225428002750784,"308":0.0033913074807300657,"309":-0.02129619368197228,"310":-0.029731468723668778,"311":0.0038822989026144556,"312":-0.07399426953497522,"313":0.07437412939674033,"314":-0.032380432783969244,"315":-0.009649056893094215,"316":0.0006802486187292442,"317":-0.01989169169303639,"318":0.030582930919823302,"319":0.0007054209297959821,"320":0.0008093920759096219,"321":-0.006980891458454872,"322":0.01081473772519526,"323":0.011104425896908058,"324":-0.05489274273516495,"325":-0.012208065488340974,"326":0.021089687353431318,"327":-0.014762693672767469,"328":0.021884760654643266,"329":-0.020593163679439863,"330":-0.07735809127291954,"331":-0.004845743631578201,"332":0.015579770170520176,"333":-0.028312029105964764,"334":0.0008103283716227525,"335":0.03569844861610062,"336":0.06649359999209076,"337":-0.07272248328362475,"338":-0.0535075368532163,"339":0.021685803000723907,"340":0.017573487136843976,"341":0.023465200435134434,"342":0.0031863673021109225,"343":-0.07134018531795337,"344":0.00591188603387787,"345":-0.005498038037043451,"346":0.09826877060356361,"347":0.020572231593868687,"348":-0.001716420471074322,"349":0.02254178217000916,"350":-0.06345862454750502,"351":0.04181529338736456,"352":0.04908135720064463,"353":-0.01630903864912648,"354":-0.0215437111464678,"355":-0.00714469066810005,"356":0.020164739617358908,"357":-0.022685284888386933,"358":0.09588936379613068,"359":0.060468084520777024,"360":0.010189534378137034,"361":-0.014592944616850081,"362":-0.018910344433112115,"363":0.013750884075508943,"364":0.049195509795437735,"365":-0.040879554112171056,"366":0.07715332237841435,"367":0.0024647349394407137,"368":-0.012594941427835751,"369":0.021458886343625222,"370":0.059279852783929755,"371":0.0843096443612677,"372":-0.03235602193127548,"373":0.011600237070829302,"374":-0.04247766484493411,"375":-0.07647867329403543,"376":-0.01684150989547078,"377":-0.011181261944226372,"378":-0.013262074083535316,"379":-0.0003925752804839661,"380":-0.046304275322941055,"381":-0.08061749894703579,"382":-0.07130231616686382,"383":-0.03833136337124353,"384":0.011863007297662006,"385":-0.034394540433272634,"386":-0.07593046578169536,"387":0.05604469150940577,"388":-0.06093227014730075,"389":-0.038582479840829055,"390":0.08599600248989418,"391":-0.05127397540605242,"392":0.028023117219023844,"393":-0.06623343027801615,"394":-0.028252140833191143,"395":0.13223968285016396,"396":-0.040470392059924816,"397":-0.05281530210951829,"398":-0.0160605853787453,"399":0.03788724641781112,"400":-0.012628866413604454,"401":0.024300592843305727,"402":-0.07244390963833788,"403":0.12561401605055403,"404":0.004275238446108696,"405":-0.019293014759214588,"406":0.008412336745271263,"407":0.02662734305683902,"408":0.10916389142561934,"409":0.042259009616448545,"410":0.002215958273796302,"411":0.029101630872411282,"412":0.03441739602816536,"413":0.028765365450013288,"414":-0.034309799922245636,"415":-0.04029282847435788,"416":-0.07234878533877113,"417":0.0037618071604262394,"418":-0.03064773499636729,"419":0.012463778360433275}},{"sx":1,"sy":1,"depth":420,"w":{"0":0.03864437969778737,"1":0.005720527482600276,"2":0.09446477822529137,"3":0.03152820682047357,"4":-0.028221002341568036,"5":-0.04206809656257057,"6":-0.06940861002862175,"7":0.07522206458220593,"8":0.021494343021232567,"9":-0.07269658353032486,"10":-0.03410856033138583,"11":0.045421007551504335,"12":-0.09182147238146016,"13":-0.09258025264552587,"14":0.07845712930757599,"15":0.00403588320928514,"16":-0.07469709602432935,"17":0.06266021181200623,"18":-0.006621574736432413,"19":-0.015384861975546171,"20":-0.03033288173981052,"21":-0.024764737886571395,"22":-0.040733725377082024,"23":-0.03252846886425107,"24":-0.10266346727305968,"25":-0.008245622120497573,"26":0.03988099125673618,"27":0.024628609259583305,"28":-0.09497266618503461,"29":0.018151280994872496,"30":0.10828545293278444,"31":-0.015023171581433818,"32":0.009044008942171418,"33":-0.06558598590760394,"34":0.004744562737808732,"35":0.034665696266879494,"36":0.13805400560189182,"37":0.06129066770691084,"38":-0.008497496783617697,"39":0.002652688911692706,"40":0.01786787702970701,"41":0.026024548256428214,"42":-0.029552648755730285,"43":-0.053733073127728244,"44":0.02215454746536857,"45":-0.026701867804889454,"46":-0.028914527402480246,"47":-0.08422180925484882,"48":-0.057518356638602,"49":-0.06090066722293302,"50":-0.03441923252130972,"51":0.03360869038737506,"52":-0.033699555221439116,"53":-0.04563667280596889,"54":0.03085626885416965,"55":0.020728911970776785,"56":-0.03178832260648876,"57":-0.053924898515052846,"58":-0.0023703507358016134,"59":-0.10839115418753326,"60":0.014986233512871976,"61":0.059482115686297424,"62":0.023723993419290643,"63":0.032912069267037,"64":-0.013780492602453004,"65":0.06718205645376168,"66":0.03823252676997737,"67":0.032751481335732094,"68":0.0738630655533005,"69":-0.0521350281574027,"70":0.06152805375009752,"71":0.0037832510635866334,"72":0.003340237559473808,"73":-0.014445850628936677,"74":0.02316814662638329,"75":-0.03750261051912615,"76":0.05911622277141312,"77":0.053459509602993026,"78":-0.06997789559226171,"79":0.09961291864746721,"80":0.07271265274528947,"81":0.04011215605238114,"82":0.00010406321615359253,"83":-0.03272098536101672,"84":0.007980715445983255,"85":-0.03230956349005866,"86":0.03251299930469878,"87":0.06840824947209748,"88":-0.025385551572228576,"89":-0.07361672169961091,"90":0.009303032951291975,"91":-0.03157911599814346,"92":-0.03108688411355431,"93":0.06949552431616113,"94":0.02962332874190575,"95":0.004797830711242972,"96":0.016024353048241385,"97":0.030304018532283088,"98":0.01830868470595118,"99":-0.0014272416268789618,"100":-0.06819519348948228,"101":0.03743023184806838,"102":-0.039719933964797505,"103":-0.004083831106245232,"104":-0.0201337170233968,"105":-0.003143592379297968,"106":0.024865154601213694,"107":-0.1117266851983555,"108":0.05123618006359316,"109":0.019875279396959194,"110":-0.0681645155164966,"111":-0.04499760390987444,"112":0.14395140971501547,"113":0.04295103602734191,"114":0.058297531290592106,"115":-0.0018017020392873165,"116":-0.02970717749291112,"117":-0.0017893629764656209,"118":-0.07757259867476889,"119":-0.053039844897342904,"120":-0.04148431171858938,"121":-0.04123939110610515,"122":-0.018543368677633024,"123":0.0464705530366782,"124":0.00820331057965657,"125":0.047384398189294616,"126":-0.022346918125105326,"127":-0.026475606220555815,"128":0.045452694680903204,"129":0.03594361287933167,"130":-0.009229224554689575,"131":0.02015642627134524,"132":-0.0070780838775565975,"133":0.013982024241886135,"134":0.031124632410011552,"135":0.03513226579942287,"136":-0.04179750546593398,"137":-0.012752913743056891,"138":-0.060260820043388535,"139":-0.006677435189491151,"140":-0.021008939096686486,"141":0.09827694651511816,"142":0.019925271348315593,"143":-0.048824372139255806,"144":0.06299112962515768,"145":-0.03863521706014711,"146":0.01804362473604129,"147":-0.029031685698533694,"148":-0.0020415954924704036,"149":0.007909333897974151,"150":0.08856699718531567,"151":-0.051339212082911985,"152":-0.02491062638794077,"153":-0.01745840058267621,"154":0.05190360291118907,"155":0.08665864104593594,"156":0.15366507463226484,"157":0.02551183204083954,"158":-0.032181061963568264,"159":-0.06555062430202743,"160":-0.018311700119993064,"161":0.024554219191329045,"162":0.05186560572322789,"163":-0.036738197300697155,"164":0.010256320495106844,"165":-0.007765115720154177,"166":-0.10973233670305099,"167":0.01804600728431396,"168":-0.08758111753014382,"169":0.012956623477632927,"170":0.031478071629585984,"171":0.046478413138065326,"172":0.0698754769528643,"173":-0.022400488417625986,"174":0.023428678079360502,"175":-0.02007725819715939,"176":-0.019356184462871066,"177":-0.028745098454411856,"178":-0.09626287646845993,"179":-0.10365965945213904,"180":-0.13945662254777666,"181":-0.05039245537958076,"182":-0.031032150706697795,"183":0.03493127071209904,"184":-0.0037683325331754145,"185":0.0574843976828158,"186":-0.03145731786774195,"187":0.033057405688237645,"188":-0.040026951282022806,"189":-0.12206352550648625,"190":0.0019106072837222468,"191":-0.11132474289841558,"192":0.008680156928347256,"193":-0.040733353459845335,"194":-0.03436822847687669,"195":0.016748566283429918,"196":-0.02401223332854555,"197":0.03217988369944043,"198":0.06731298292490828,"199":-0.020529766004123443,"200":-0.0076362454957734785,"201":-0.07901400980292024,"202":0.024554795339868322,"203":0.06464995012797897,"204":0.0672582826309281,"205":0.009289995607249097,"206":0.008352627975182726,"207":0.0004852776269576153,"208":-0.08276934315313912,"209":0.0007897806142472904,"210":0.005732790644465312,"211":0.14380806901867405,"212":-0.03213403565062504,"213":-0.07696683630132423,"214":0.027679592540455315,"215":0.019822811588509064,"216":0.0028438801224362643,"217":0.019782838271647712,"218":-0.02048333614490449,"219":-0.05760931168137834,"220":-0.019732208115563712,"221":0.09974858625897949,"222":-0.03753604018938887,"223":0.06685521382620103,"224":-0.005213483260679257,"225":-0.03576374682978126,"226":-0.013923082393486386,"227":-0.0446572565070361,"228":0.012816120898364638,"229":-0.004886752774985864,"230":-0.05858004258263257,"231":-0.026859084836710078,"232":-0.01122436484555857,"233":0.06058274893222508,"234":-0.009843543648735222,"235":0.025002477699047596,"236":-0.008953356747819509,"237":0.014122842644032477,"238":0.07990700191564132,"239":-0.03350168053140466,"240":0.043447633141635404,"241":0.03775891609643721,"242":-0.05592319392490739,"243":-0.030399827342784125,"244":-0.09572659902860561,"245":0.02543779639013439,"246":0.07339750355579441,"247":-0.07109836199733605,"248":0.038786472117796934,"249":-0.009768390671850513,"250":0.008415625983114563,"251":0.018644345005012847,"252":0.10332963575987075,"253":-0.030052541002264458,"254":0.009779030708530216,"255":0.04144150977272375,"256":-0.07893116209870785,"257":0.027178287060242813,"258":-0.03147416679110792,"259":0.08159115559291073,"260":0.06307290940436265,"261":-0.045581891586774934,"262":0.036241156529581854,"263":-0.05241320677611488,"264":0.10426523344902577,"265":-0.017516716457519184,"266":-0.06859833195967346,"267":-0.04651897216438002,"268":0.006264828293140455,"269":0.03295259683934428,"270":0.014474118057647069,"271":0.023363284269106645,"272":-0.025719298633523624,"273":0.020617163552709684,"274":-0.04376319677557102,"275":0.030665175907278523,"276":-0.043493645130517795,"277":0.028600383958589087,"278":0.012122904389738644,"279":0.0436978118918606,"280":0.08078131158502093,"281":-0.05034192910686621,"282":0.05205346560453751,"283":-0.10416358043944159,"284":-0.08123939291869182,"285":0.06563659108518591,"286":0.01717398667758532,"287":-0.04364966083274867,"288":0.03024945709840007,"289":-0.0514074184060807,"290":0.08848494543838621,"291":0.10788307894433712,"292":0.03377927235215924,"293":-0.015829582889481313,"294":-0.0037032499592491884,"295":-0.06691335771768032,"296":0.0383387648637548,"297":-0.050886701099918615,"298":-0.03994341836222406,"299":-0.10602755893182858,"300":0.05068968230756151,"301":-0.014000617214965863,"302":0.030838671531177354,"303":-0.019235118547115706,"304":-0.0029343798824706916,"305":0.04769591244254472,"306":0.030480610564833647,"307":-0.012854103984436082,"308":-0.007260501224652725,"309":0.11326540860519309,"310":-0.02949934917994694,"311":-0.04445499384267116,"312":0.05143095439714314,"313":-0.01930920822379244,"314":0.013926488794182887,"315":-0.0016937067104950882,"316":0.02042602087709209,"317":0.03871767632837716,"318":-0.03354362579853315,"319":-0.010037170258946468,"320":0.01988027160032352,"321":-0.017256212122781882,"322":0.04264477268029106,"323":0.026962945765317273,"324":-0.023573116248745724,"325":0.02075269067938988,"326":-0.0021585433456781625,"327":0.028919435775949215,"328":-0.05005867352409042,"329":0.019997114708761782,"330":-0.07446278549296438,"331":-0.06220601596972159,"332":0.03928191371380501,"333":-0.014633214949332833,"334":0.029102694159362143,"335":0.04535068991668996,"336":0.05321715125147671,"337":0.0035338978716959895,"338":-0.024968318355610426,"339":-0.06559976695503002,"340":0.06469150158923605,"341":-0.101347897307023,"342":0.054321445289959726,"343":-0.029324203766941268,"344":-0.009649024551275358,"345":0.020597526361001817,"346":-0.0022460714324446336,"347":0.07015297981040206,"348":0.025170533558867038,"349":0.011573931500983159,"350":-0.00996258113714109,"351":-0.08185257656732438,"352":-0.009533704801942756,"353":0.0008065096357400041,"354":0.017650201514631345,"355":-0.0032303118975779317,"356":-0.009410555961691389,"357":-0.01722075580365122,"358":-0.06159336096315227,"359":-0.08298280949048367,"360":0.036104861064752636,"361":-0.06482681551073849,"362":0.07139026821315621,"363":0.02295952478890568,"364":0.019308819553573664,"365":0.04396157923645678,"366":-0.001458752654138305,"367":-0.05972275987061713,"368":-0.02246737442241071,"369":0.013249176087192739,"370":0.07510309280890767,"371":-0.029245697967734127,"372":-0.05275615926297789,"373":0.019954086032361703,"374":-0.007312781372157437,"375":-0.021766188299446175,"376":-0.013108214733169013,"377":0.008032887290053187,"378":0.021625133721371363,"379":0.03339805284657275,"380":-0.05984481118839724,"381":-0.03733228171926851,"382":0.026594239106128816,"383":0.008293458275278935,"384":0.04772320622286929,"385":-0.004281106609419264,"386":-0.007736548134284903,"387":0.05133156890516417,"388":0.002416447233718261,"389":-0.055358998759748805,"390":0.07815529341160345,"391":0.00481990065523524,"392":-0.03242083198181849,"393":0.019058873393617046,"394":0.03863928376722894,"395":-0.052919454437405075,"396":0.050594753986250185,"397":0.043370648319863904,"398":-0.0990174563044109,"399":0.117789469321965,"400":-0.01953672365547422,"401":0.010891867412587184,"402":0.1208990863762026,"403":-0.023857097147165694,"404":0.023949490966603596,"405":0.08918956434431535,"406":-0.037599191752366,"407":0.06563574869790481,"408":0.053286645030492845,"409":0.021182728870304465,"410":0.06769170753521907,"411":-0.01741704413967974,"412":0.009524215399606059,"413":0.021094704586198377,"414":-0.05322271459887364,"415":-0.01146008511662642,"416":0.021442239519897544,"417":-0.028559580445959735,"418":0.024215313665440302,"419":-0.11205077493894985}},{"sx":1,"sy":1,"depth":420,"w":{"0":-0.010738737473872387,"1":-0.10379273352294507,"2":0.06257335337184376,"3":-0.017629617696551952,"4":-0.025827297801571284,"5":0.051597713052273605,"6":0.12176759076374606,"7":0.05801089116131479,"8":0.027789331646187364,"9":0.0338209427887006,"10":0.0034597320771779976,"11":0.047127177643206807,"12":-0.013176175038463356,"13":0.01856596691833798,"14":0.019887929208314895,"15":-0.03705301707955975,"16":0.010554699898352395,"17":0.010872976945598918,"18":0.037921776960533886,"19":0.06928049881729655,"20":0.08416522751306477,"21":0.03075335588333415,"22":0.0790239564893769,"23":0.014160176991089088,"24":0.0963870792294799,"25":0.00181250587600068,"26":-0.046084729411926664,"27":0.014603712925272608,"28":-0.016037004068997936,"29":-0.010394160706940042,"30":-0.060848398079832694,"31":-0.07414782363600839,"32":0.007858460191241826,"33":-0.05787986986018174,"34":-0.04417223254082251,"35":0.0803872423708775,"36":0.03455033402772808,"37":0.01159454714074908,"38":-0.03202807691632466,"39":-0.03158822346128145,"40":0.011193434524873657,"41":0.00042787372333145214,"42":-0.018663675628622183,"43":0.09646902503895848,"44":-0.014269416648909355,"45":0.030851006651394293,"46":0.044494878727143944,"47":-0.015751549222189454,"48":-0.040454063375324645,"49":0.0035441313895096943,"50":0.04895251402136074,"51":-0.03636339945140159,"52":0.01002473340493047,"53":0.09531023019556173,"54":0.005286734503878642,"55":-0.014311774641577504,"56":-0.001898255003369782,"57":0.09001501406638847,"58":0.05654664072422619,"59":0.03121017534621025,"60":-0.08082346111755134,"61":0.028106682696760168,"62":0.01822994343031633,"63":-0.030032169229171367,"64":0.026090601508190748,"65":-0.06073967175633421,"66":0.03381330603455788,"67":-0.00937568335981857,"68":0.07424310597195515,"69":-0.009779067671943403,"70":0.07037956768450322,"71":-0.008739600082794171,"72":0.0342495939728565,"73":0.09883878525522964,"74":-0.03199388213256072,"75":0.040003375195589816,"76":-0.07053399291947353,"77":0.011287365493195829,"78":0.014624808201816056,"79":-0.01996754863986038,"80":0.012988468073524644,"81":0.08810886927734836,"82":-0.010068528040156273,"83":-0.0063489588938295295,"84":0.05616837582879729,"85":0.02924141785295724,"86":-0.031077139132828106,"87":0.004964298751870971,"88":0.008864237810816283,"89":0.05662977108326447,"90":0.017393502704996563,"91":-0.0176476293811645,"92":-0.003352064928241675,"93":-0.02577149276909132,"94":0.11120069319650079,"95":-0.004275330602385858,"96":0.07863826267075551,"97":-0.0162473444308138,"98":-0.06086147510822491,"99":0.058799077022718645,"100":0.07072218191392256,"101":-0.04491472620040069,"102":0.033677581685738846,"103":-0.01923808369473501,"104":0.007097943618272072,"105":0.0019675532161501173,"106":0.026916413930846067,"107":0.08981472755520883,"108":-0.03288910799443226,"109":-0.052607971252497415,"110":-0.01287556778816272,"111":0.029610764827406794,"112":0.03420804595665895,"113":-0.009344380065338803,"114":0.005515047280208092,"115":0.026714119873172487,"116":0.07962271632194927,"117":-0.020261322858044287,"118":-0.06818494651164578,"119":0.10800224475844751,"120":0.020165114050879073,"121":0.016316439361071043,"122":0.02328094570571711,"123":-0.03910227486726727,"124":-0.04882925410297705,"125":-0.042626642038127986,"126":0.014398151432268223,"127":-0.04886265750926714,"128":-0.013676639759983593,"129":0.10596890582794295,"130":-0.06438887984538855,"131":-0.04351097165256199,"132":0.04346791661411479,"133":0.03646779569056243,"134":-0.012762863402900632,"135":0.036253298223371956,"136":0.04945718143228873,"137":0.05384762546383698,"138":-0.01701631053551386,"139":0.03926722059758996,"140":0.05795302226951205,"141":0.013319239504199791,"142":0.018575763011916054,"143":-0.04068550294722151,"144":0.09779407551484343,"145":0.0651400514929843,"146":0.1048141083181172,"147":-0.07000204003717217,"148":-0.03227620111193207,"149":-0.015673562404725887,"150":-0.0903747166211422,"151":0.018585175126658852,"152":0.001558819709040235,"153":0.031976429085726336,"154":-0.010503881774978529,"155":0.06786287591986649,"156":-0.010162427938796303,"157":0.011951771347739434,"158":0.06323771603232067,"159":-0.06998281462921405,"160":0.0838923721522186,"161":-0.0647725839347591,"162":0.019078778588032818,"163":0.005021683476208492,"164":-0.054907967246891155,"165":-0.06908595023241523,"166":0.013419809663762938,"167":0.0021167816680302235,"168":0.017466457548729754,"169":-0.02128265885108332,"170":0.00470039576609494,"171":-0.0430939329084961,"172":0.016760208796465552,"173":0.03842987606814621,"174":0.05531502601328797,"175":-0.029687837965495793,"176":-0.017696179382851934,"177":-0.10839357272321679,"178":0.01587520588785965,"179":-0.06136232575543528,"180":0.02084697614124265,"181":0.06763249678125462,"182":0.003679775242664352,"183":0.10114236527743616,"184":-0.017832386928224045,"185":0.03118280286038493,"186":-0.037475895916983824,"187":0.014908662506342448,"188":0.02161904896723443,"189":0.038642198447982286,"190":-0.07005157379300432,"191":0.04567414637904761,"192":-0.05966902612230004,"193":0.06757828886678276,"194":0.004678542570991048,"195":0.008324978003809654,"196":-0.06862063089693556,"197":0.07377231885610883,"198":0.011312958360880919,"199":-0.010972526842447011,"200":0.0437789625342202,"201":-0.04123763784019515,"202":-0.031137239132280187,"203":-0.00021699249996648575,"204":0.005223119616391589,"205":-0.05944839426471699,"206":-0.03180115938839383,"207":0.005064475980298077,"208":0.028537984273940296,"209":0.04219949989966753,"210":-0.08776814308138231,"211":-0.019890555731827648,"212":0.004896506889585881,"213":0.013481211892102682,"214":0.001463745585496792,"215":-0.08046796092256475,"216":0.023582479903383285,"217":0.05773956882248999,"218":-0.004187570086629888,"219":-0.0012344759155922932,"220":-0.06724513177849897,"221":-0.011514904827119254,"222":-0.024910962346138803,"223":0.024457668659877557,"224":-0.017164469174802327,"225":-0.05622680591578279,"226":-0.011429217424672712,"227":0.07468682406782355,"228":0.05984775027842767,"229":-0.029072763380604588,"230":-0.04491015505635782,"231":-0.025099372214867775,"232":-0.03515872769259022,"233":0.021981169646898092,"234":-0.03639225503200527,"235":0.0014164493280856164,"236":0.023756905765647658,"237":0.09651496485338906,"238":-0.024719781481178146,"239":-0.030423819788862685,"240":0.06413588256914056,"241":-0.02574214449758057,"242":0.04664569844025506,"243":-0.025034367396071653,"244":0.002197590882451235,"245":0.018938213797494698,"246":-0.0210913216359779,"247":0.018814352052163218,"248":0.009005583999056176,"249":-0.005603537986909531,"250":-0.004129867438755533,"251":-0.022673450167918257,"252":-0.039040350545407394,"253":0.16449757152557545,"254":-0.035364544734624345,"255":0.016750636580382963,"256":0.06584194410046901,"257":0.011087300310793271,"258":0.014278061369091597,"259":-0.06785739817548941,"260":0.008163321320055587,"261":-0.0037758335499929315,"262":-0.08932265076147021,"263":-0.008208079075300419,"264":-0.07082754025534099,"265":-0.0397185138177421,"266":-0.02319241891398346,"267":-0.05662791708850749,"268":-0.03919996647676754,"269":0.0017725525597081957,"270":0.0750747976894981,"271":0.0697230121303547,"272":0.002112167852911773,"273":-0.05029545789007429,"274":-0.05935751679784458,"275":0.019235022867809377,"276":0.04075184293111323,"277":-0.007122355930507362,"278":-0.04635833624561331,"279":-0.02853573849977821,"280":0.023471149347828762,"281":-0.05337933637303806,"282":0.005889645665889816,"283":0.020623683059037532,"284":0.009682569264619906,"285":0.09245367046780395,"286":-0.013039481676676769,"287":0.01499044714055771,"288":-0.017413627055970292,"289":-0.03922735583814307,"290":0.05722472810083877,"291":-0.02080811403298534,"292":-0.005635797570757671,"293":-0.003030495632377913,"294":-0.053115127007531425,"295":-0.0433652969236355,"296":0.038208358668266336,"297":0.005373291848109967,"298":-0.006701622897846161,"299":-0.023111142316416786,"300":0.04962190687132374,"301":0.044474547434720464,"302":-0.08772049423202886,"303":-0.0635797501859188,"304":-0.08616730144498443,"305":0.047982690105628445,"306":-0.03412681427047936,"307":-0.06356624442535831,"308":-0.013812175704243212,"309":0.12064333405768482,"310":-0.0060512820163669484,"311":0.015629983318480065,"312":-0.0025645472378822993,"313":-0.00443018408088332,"314":-0.0047056507834598756,"315":-0.0150030962289788,"316":-0.019810554801652374,"317":0.05870188905205674,"318":-0.04871559470712037,"319":-0.0017663804940596533,"320":0.06254479033829928,"321":-0.033198016303022146,"322":0.07657023212436309,"323":0.1319615595721413,"324":-0.0737401143955527,"325":-0.015267151797837133,"326":-0.06500670070901375,"327":0.007141051277085474,"328":-0.0012986217185617646,"329":-0.07195346685860453,"330":-0.007549833453779873,"331":-0.014907061912539954,"332":0.07557613699522497,"333":-0.039680463134289634,"334":-0.09689677150833162,"335":-0.02509642536662049,"336":0.029758096411945573,"337":0.03540278095442092,"338":0.05779862350089048,"339":0.0528747968289011,"340":0.01530532596335281,"341":0.031007338909418147,"342":0.05183178550564725,"343":-0.036554663394447476,"344":-0.16258203440801317,"345":0.022432681326642816,"346":0.047573546763263225,"347":-0.03901170575678078,"348":0.011725163874640853,"349":-0.009058605586048912,"350":0.018624029050500087,"351":-0.002224487507139281,"352":0.03689563563758267,"353":0.0019085689042958613,"354":-0.03698476841620915,"355":0.09277406100733879,"356":-0.038024059998614315,"357":-0.05072732082163557,"358":-0.08281979614443225,"359":0.007898217391055368,"360":-0.009100944743174912,"361":0.04910580859175888,"362":-0.06595167682331246,"363":0.019356936937898698,"364":0.024477629433697582,"365":-0.1186888721826294,"366":-0.007578766016487688,"367":-0.0023650584975533364,"368":-0.018090960226453682,"369":-0.04089322034425294,"370":-0.052761710938565874,"371":-0.034514440095946425,"372":-0.028063937783249445,"373":-0.029611814850942948,"374":0.03340694451913817,"375":0.019836639384622885,"376":0.07153337375465303,"377":0.007365147334745048,"378":0.052180290748785364,"379":0.01865665530254728,"380":-0.02654316755455948,"381":-0.12597665428983593,"382":0.07411748498107584,"383":-0.10765548633217709,"384":0.03909778493843482,"385":0.07864196454223553,"386":0.04528122074697596,"387":0.07600804173280291,"388":-0.05716060436406653,"389":-0.017484030837985984,"390":-0.05039167614496326,"391":-0.10955376570983871,"392":-0.057497945100578936,"393":0.04953470200809147,"394":0.0039429286438471016,"395":-0.03846766074018327,"396":0.009032934505675282,"397":0.04705476429742206,"398":0.03872188791814573,"399":0.05895559265818377,"400":0.03782468139268425,"401":0.001411952256802921,"402":-0.011660742449976363,"403":-0.027587486742806037,"404":-0.012344373867026099,"405":-0.08297054853539959,"406":-0.014935077301837293,"407":-0.05339165724128462,"408":0.06322896986433509,"409":0.0832228170419464,"410":-0.005562814298331078,"411":-0.023290801915391127,"412":-0.0631110452142607,"413":-0.00569872901384643,"414":0.03727229400246313,"415":0.06466269084657443,"416":0.028373330843595237,"417":0.00504037613888985,"418":-0.003046769524774419,"419":-0.04177190028029318}},{"sx":1,"sy":1,"depth":420,"w":{"0":0.001762568451488611,"1":0.010722895462764342,"2":-0.04254394883180429,"3":-0.0337690639271483,"4":-0.029371297363247548,"5":0.09764890762550896,"6":0.021105227100593607,"7":0.05668842485588406,"8":-0.11600683135108822,"9":-0.020265763998643823,"10":0.036384164790019526,"11":0.043149253061767194,"12":0.04144695711278497,"13":-0.03198292229461007,"14":-0.026408232901437723,"15":-0.029419580548557044,"16":-0.10017471627718062,"17":-0.09131244177113229,"18":-0.047979982081632795,"19":-0.005476518512589082,"20":-0.022964264249299177,"21":0.05393910353011805,"22":0.0770919966071312,"23":0.01322884165210325,"24":0.02196442586063621,"25":0.025244499512961597,"26":-0.004969295377293932,"27":-0.020504217132678085,"28":0.0009677847978732948,"29":0.059719127031539976,"30":-0.03707433269649533,"31":-0.0008091531239056369,"32":0.015392214278478998,"33":-0.018860846357002553,"34":0.09283662487291654,"35":0.04029598146025857,"36":-0.030517836773410734,"37":-0.017760804253022337,"38":-0.09605077661652273,"39":-0.019099418981223394,"40":-0.026228493361413273,"41":-0.02254505539831372,"42":-0.008503798810274457,"43":-0.04373767551808964,"44":0.051755688638424675,"45":0.02553657708747034,"46":0.027218326884638037,"47":-0.03426707528916504,"48":0.04817400072602596,"49":-0.011826739328368608,"50":-0.05165037938359925,"51":-0.04170295989183205,"52":-0.039038352701334024,"53":-0.03963868884688579,"54":0.09108785335213689,"55":-0.008889781009448011,"56":-0.037267642191302026,"57":0.04319661780198008,"58":0.021925941833093415,"59":-0.11857191694900068,"60":-0.0011646617963911438,"61":0.05315040809771352,"62":-0.031788042870427885,"63":-0.09041639373840832,"64":-0.005438686038243247,"65":0.04624731738809185,"66":0.05061641944621936,"67":-0.028354582689328615,"68":-0.0399327356980609,"69":-0.037183450874366954,"70":-0.02905853981436169,"71":-0.02524259426108155,"72":0.07334997432732032,"73":0.006649150714937608,"74":0.02939094178856379,"75":0.01232498341846169,"76":0.004292837298438194,"77":-0.0007424889458693054,"78":0.04691762937406356,"79":-0.009696497127666246,"80":-0.04598361924220661,"81":0.044566203639496725,"82":-0.03049778145856516,"83":0.06275825209233647,"84":-0.02447633342304958,"85":0.019599237614094805,"86":-0.09839461337917291,"87":-0.0578018268795945,"88":-0.034150200013740854,"89":-0.03008519793348615,"90":0.08468190655815813,"91":0.0013314508475610785,"92":-0.05629610388059561,"93":0.049652591995570435,"94":-0.05222345636362138,"95":0.05872406777570408,"96":0.0005846447358163261,"97":-0.011811518540986108,"98":0.026709946174209152,"99":0.06545397786379833,"100":-0.04994317766854221,"101":-0.05456404667026072,"102":0.033206180625055245,"103":-0.08308174479620269,"104":-0.08536866498019803,"105":-0.03749037467515135,"106":0.039220493961519914,"107":0.08048669638060095,"108":0.03557878508204656,"109":0.030656839604033093,"110":-0.04135370501132293,"111":0.03790927004583141,"112":0.006393528463890938,"113":-0.002342931319347865,"114":0.04614058926174408,"115":0.020760511368377244,"116":-0.002894261552465307,"117":-0.017085685157394538,"118":-0.005379029516007416,"119":-0.030237096228904626,"120":0.01888315936642638,"121":-0.01900009510136362,"122":0.13046170043509706,"123":0.1024978236442146,"124":-0.02886153600104259,"125":0.02176377076455549,"126":-0.046665533438555167,"127":0.09870744004197375,"128":-0.09695106248001863,"129":-0.02374813191275242,"130":-0.043946048712895806,"131":0.012232477615139384,"132":0.05194586887679096,"133":-0.013816120485956672,"134":-0.009366593471820102,"135":0.07457110426389708,"136":0.06231971285246592,"137":-0.026117303562276442,"138":0.07859403888018116,"139":-0.02308291197524268,"140":-0.018764580846342718,"141":0.02326231951929467,"142":-0.011792135240238026,"143":-0.03716292286780178,"144":0.09831796017093514,"145":0.055244235446682284,"146":0.010965032079858161,"147":0.004496416968578887,"148":-0.058770156216427935,"149":0.057218040103935386,"150":0.04040762936940557,"151":-0.014385771050653468,"152":-0.008490906046944982,"153":-0.09097291119308043,"154":-0.02799467755975682,"155":0.04270142313203764,"156":-0.07534290686810158,"157":-0.02804393002059241,"158":0.06492617165941675,"159":0.046361708195870925,"160":0.05408151210223536,"161":0.11492557988717819,"162":-0.013227461891599835,"163":0.026524190626014715,"164":-0.06562845050359771,"165":0.022991137142981986,"166":-0.012357399385471722,"167":-0.0019763907633241424,"168":-0.09666620732013172,"169":0.02893371186371632,"170":0.013907612236395177,"171":-0.05830445418096114,"172":-0.01908005314043067,"173":0.01578369918029327,"174":-0.09413609498394808,"175":-0.0189669868304095,"176":-0.03770977135192349,"177":0.03031300362497122,"178":-0.032141954824926856,"179":-0.028016211479389676,"180":0.06228728954218811,"181":0.028831267169635983,"182":0.055590625035435756,"183":0.07954697182316033,"184":-0.03442005824832845,"185":-0.018039337383606375,"186":0.02814673840452982,"187":-0.00733069483968078,"188":-0.04597838855560619,"189":-0.0373369624079617,"190":0.03658924593884166,"191":0.10059527269142185,"192":-0.060382676689755214,"193":0.0789556606509389,"194":-0.040627487033465755,"195":-0.040086505011930326,"196":-0.0248265704197761,"197":0.03087087813949709,"198":-0.03400230662538489,"199":-0.09710540214616051,"200":-0.018859547325866397,"201":0.017465748191213097,"202":0.038369348529801436,"203":-0.031071621376673592,"204":-0.05209054062396963,"205":-0.04637656715583947,"206":-0.004745429459941293,"207":0.015384303968323123,"208":-0.003964009368316683,"209":0.06667008722660922,"210":-0.06787444316121832,"211":0.04540549965440933,"212":0.004694580494405204,"213":-0.05421804111616221,"214":-0.06633813397650225,"215":-0.1200646927516896,"216":-0.036695423311617965,"217":0.0744239394082477,"218":-0.001680708937519652,"219":-0.030133457370969084,"220":0.03363742699507442,"221":0.06715786166101775,"222":-0.02068613650958486,"223":-0.023581839702094393,"224":-0.03243535322137056,"225":-0.020647238268386662,"226":-0.10221737343008794,"227":-0.0013674972705600928,"228":0.08091255958007128,"229":0.006632485628755577,"230":-0.07926975623953078,"231":0.007963368924100687,"232":-0.07091992449518084,"233":0.015877460359246098,"234":-0.03483516216154994,"235":0.029314086027920135,"236":-0.07665297942232609,"237":-0.035306764280033806,"238":-0.07126012692653565,"239":-0.059570874887778756,"240":0.018217620769168615,"241":0.05220830887947851,"242":-0.05199234953344842,"243":-0.04870672250952308,"244":-0.02238957438750703,"245":-0.010719375114286896,"246":0.03846340342544697,"247":0.0015749171098458305,"248":0.011387066706151491,"249":0.06804023173468511,"250":0.02370048438307557,"251":-0.0037041098819387158,"252":-0.09699527541538806,"253":0.06313410381630533,"254":0.011581336196489106,"255":0.05449103096862016,"256":-0.025752682268062328,"257":0.0010062624659468767,"258":-0.03654412433822683,"259":-0.11288193392455086,"260":-0.008970282836877544,"261":0.03251588232575984,"262":0.11326970394599119,"263":0.004051203382810189,"264":-0.09008436274503555,"265":0.008349763508050206,"266":-0.01472109534364612,"267":0.02303557765990675,"268":-0.04016619437227679,"269":0.04715587713499883,"270":-0.03562864100560275,"271":-0.11858478297311527,"272":-0.05864091914903625,"273":0.007880256755771708,"274":-0.01853667129536261,"275":0.04710049232401409,"276":-0.07255251180821921,"277":-0.021172245465159896,"278":0.0014604074851837644,"279":0.09849312880618745,"280":0.10264384530930173,"281":0.06547115585611124,"282":-0.04396875108937549,"283":-0.02493762200354343,"284":0.003459319921900465,"285":0.030828134635077456,"286":0.011319381487039685,"287":-0.05319478397210158,"288":0.11381266675302766,"289":0.02085892413025064,"290":0.02336892708545892,"291":-0.051960026266103264,"292":0.02070345337151332,"293":-0.015332649713716017,"294":-0.041885323500941866,"295":-0.006820454203067243,"296":-0.08379723384975044,"297":0.06375742435450299,"298":0.06257183424978281,"299":-0.08443621361524223,"300":-0.010116504226713998,"301":0.00019524686029394046,"302":-0.07502745066472527,"303":0.05042628124582121,"304":0.05842229770958071,"305":0.019681120419199394,"306":-0.04505843929073193,"307":0.016227896926403168,"308":0.047021941230174,"309":-0.03853493044505922,"310":-0.030969858617101814,"311":0.015979198583938665,"312":0.044933090743537296,"313":-0.10644957777906291,"314":0.09389241060739481,"315":-0.03736388450618283,"316":0.04081900519024005,"317":0.026507740160441714,"318":0.06932755878738651,"319":0.07170820435419614,"320":-0.002204031106273859,"321":-0.04160280799675428,"322":-0.03210476421517192,"323":0.0012168927337779536,"324":0.02332079085635696,"325":-0.017888182344215516,"326":0.03897369065279922,"327":-0.005153016718250377,"328":-0.06835020065629122,"329":-0.06764819075505213,"330":-0.0077074743870570415,"331":0.07381376065270188,"332":-0.017139396820280067,"333":0.08916563934626623,"334":-0.03542037182405766,"335":-0.01002463644087117,"336":-0.046225228787736834,"337":-0.008856738496489259,"338":-0.06334032055994944,"339":-0.08363018392381269,"340":0.06771986251579758,"341":0.003536137137137154,"342":-0.022455085020633966,"343":-0.07598824265851911,"344":-0.07289051460162543,"345":0.0940042923698025,"346":-0.0342892625472789,"347":-0.037834562693580966,"348":0.05561152464290455,"349":0.06320627047776331,"350":0.0371291163453285,"351":-0.013487249584649967,"352":0.00736571710052445,"353":-0.0013597726294188824,"354":0.002082962023492201,"355":0.03578790287314488,"356":-0.10527752282447038,"357":-0.06967874076433592,"358":-0.01937556064034622,"359":0.04139749944918462,"360":-0.05208786144345126,"361":0.049929810918509246,"362":-0.029674915434562077,"363":-0.008211315239914046,"364":-0.02709256563036921,"365":0.06418209518102919,"366":0.03398110857709328,"367":0.04650265932453518,"368":0.05708949352359776,"369":0.0075334127082876375,"370":0.07404988467628613,"371":0.0016339041874370598,"372":-0.015479365817751006,"373":-0.03240975010039797,"374":-0.04187871441008944,"375":0.016891014314022228,"376":0.024033573667956158,"377":0.014929710575427392,"378":0.022934427037028714,"379":0.03949316280718112,"380":-0.011656433212606553,"381":-0.06317731025091239,"382":0.02839488434775123,"383":-0.008726791826498211,"384":0.0012741266227838017,"385":0.04077595382377783,"386":0.06057354706499164,"387":0.03438290136608428,"388":0.00012111388344305412,"389":0.06530074798093247,"390":0.03849647345378962,"391":0.0014446048869980468,"392":-0.01980507178181286,"393":-0.012319576805145853,"394":-0.04036048976794639,"395":-0.0001496348480749293,"396":0.06398893330171486,"397":-0.03983842030770805,"398":-0.07885963374358854,"399":-0.0031530184109293253,"400":-0.06997614741709826,"401":-0.030031682181659015,"402":-0.11325570017424628,"403":0.031015009592736092,"404":0.0527253520769243,"405":0.06880667094166991,"406":-0.04919729960326525,"407":-0.00632368432509819,"408":-0.06268850927521538,"409":-0.003971422608920937,"410":0.023588436680333762,"411":0.0163947835536509,"412":0.0549204349298695,"413":-0.012086541801875952,"414":-0.022037690977718554,"415":-0.09411845478916624,"416":0.015890513841004258,"417":0.005084818770855527,"418":-0.03963885097799995,"419":-0.009101034256956504}},{"sx":1,"sy":1,"depth":420,"w":{"0":0.02333129217928846,"1":0.09580407869453339,"2":-0.006271640394506935,"3":0.04915100136067595,"4":-0.011310303556442042,"5":0.11081278189634544,"6":0.043453124843503894,"7":-0.018014306110450462,"8":0.06647460143562293,"9":0.02195678641438752,"10":0.0674424852842617,"11":0.006922308242971925,"12":-0.040154028958322804,"13":-0.004086582253058601,"14":-0.020725575755163834,"15":0.0676483674190886,"16":-0.008932534011257775,"17":-0.032902053500360864,"18":-0.039843822242279614,"19":-0.0397661417446898,"20":-0.042079535639165326,"21":-0.01825705514041246,"22":-0.022466214935110206,"23":-0.05068822488979369,"24":0.0729358186705573,"25":0.06027918049480331,"26":-0.011734066271493305,"27":-0.011345358285954767,"28":-0.02262705603256165,"29":-0.06261479767564612,"30":0.015937427397468673,"31":-0.08529645205756095,"32":0.017612833706272923,"33":0.008142107993521063,"34":-0.08558074523314813,"35":0.0059682584346017415,"36":-0.011751695039949304,"37":-0.04314739521590195,"38":0.08998065894221315,"39":0.01956138439453204,"40":0.04078130446373739,"41":0.02575086308403347,"42":-0.06274207381474775,"43":-0.02304798847765002,"44":0.0034126638138612885,"45":0.004266948014460532,"46":-0.015147354599070108,"47":0.07868538959186287,"48":0.050640028699213,"49":0.05537606539859556,"50":0.05842806047371804,"51":0.02520351619566668,"52":-0.004660051739872796,"53":0.07047819650456189,"54":0.09010221159509894,"55":0.026795787644896894,"56":-0.06430689786824033,"57":0.02906043935267329,"58":0.04247687673672663,"59":-0.08711811140000404,"60":0.08618948808369667,"61":-0.0022570250812059553,"62":0.05602741344442106,"63":0.03591741757765715,"64":0.08549634077605485,"65":-0.021856011164223525,"66":-0.019530843929521317,"67":-0.09644905197238235,"68":-0.06714100206956851,"69":0.05748591229263824,"70":0.024288470018212285,"71":0.02236662495978875,"72":-0.060938273793021275,"73":-0.0811822548634611,"74":0.04229854782738187,"75":0.05178197596912675,"76":0.005939856620130464,"77":0.060443624629928694,"78":-0.07317932314277419,"79":-0.02433398629418244,"80":0.013850710599680197,"81":0.013428783891745254,"82":0.025231268559530885,"83":-0.011975119768939496,"84":0.03291360772462947,"85":-0.08568824459308343,"86":-0.054444780511753485,"87":-0.06409534297985117,"88":-0.044281154957631276,"89":-0.029533345840359618,"90":-0.036812744555040224,"91":-0.0562344519974894,"92":0.051939674657573875,"93":-0.055048435198347415,"94":-0.04578359896958056,"95":-0.0772029973247077,"96":0.03649879137755515,"97":0.14003199671212485,"98":-0.034164332016857736,"99":0.09454290866406016,"100":-0.004481390605944414,"101":-0.024372779446615183,"102":0.018347454398925732,"103":0.029079646589389933,"104":-0.03306585780117659,"105":0.03238258698502772,"106":0.03411452097993364,"107":-0.008219991882876664,"108":-0.027904586113144673,"109":-0.031185852792452957,"110":-0.022943033602395767,"111":-0.0547033408314417,"112":0.04817396556536017,"113":-0.03787186843632499,"114":0.013363770645529115,"115":-0.034015556049072755,"116":-0.0157173123634049,"117":-0.04877404836127305,"118":-0.1319818450285573,"119":0.0021605643807091125,"120":-0.023893950056866915,"121":-0.057156728873244834,"122":0.032059005584416767,"123":0.02873923900042336,"124":-0.015394792271250256,"125":0.024369376253048632,"126":0.07046974347438144,"127":-0.02838537378850469,"128":-0.0687816667265629,"129":-0.05499559971334598,"130":-0.08558708060277624,"131":-0.031487068874653065,"132":-0.016780397491729174,"133":0.06377440671210348,"134":0.03173122987816301,"135":0.030123374498116612,"136":-0.07176267991045474,"137":0.05140469029835086,"138":-0.03756046000656346,"139":0.004562961319947955,"140":0.023400595814022918,"141":-0.09316954619274762,"142":-0.024063249628060113,"143":-0.06525288100981395,"144":-0.04592065864775565,"145":-0.04861436636844968,"146":0.09995647388085863,"147":-0.016626132630686963,"148":0.025661652086676343,"149":-0.03725112077107922,"150":0.026693108137007534,"151":-0.06632893894480191,"152":0.1115787918694039,"153":-0.023843527381231633,"154":-0.09950850364190635,"155":-0.1128723932554209,"156":-0.04394748956224314,"157":0.006703200815459463,"158":-0.06287252230954901,"159":0.007739936361746075,"160":-0.0575104714262304,"161":-0.05534237299522473,"162":0.061196962071324315,"163":0.0016119193609005836,"164":-0.039954287154065356,"165":-0.05246405462030963,"166":0.030846231047896532,"167":0.015957476625710034,"168":0.07190120366710887,"169":0.06528241772194764,"170":-0.05520356093393211,"171":-0.04500635152899074,"172":-0.012546539414281032,"173":0.002939700192153117,"174":0.011846958100026596,"175":0.07403872647189744,"176":-0.03044248997102028,"177":-0.06193869322066865,"178":-0.0060093977575580715,"179":0.07441961128445275,"180":0.04101122832242868,"181":0.10094157754141277,"182":-0.022393199290475698,"183":0.0646976681911483,"184":-0.05396245839372271,"185":-0.0012583453924581707,"186":-0.06911220300326484,"187":0.05563113160418633,"188":-0.06401702952054932,"189":-0.0930365861450446,"190":0.083940568326169,"191":-0.03169529672297371,"192":-0.006135441582274652,"193":-0.029356354263666125,"194":0.007274255517921068,"195":0.003776211116540098,"196":0.023957479096554272,"197":-0.0355331556693569,"198":0.0378356545089326,"199":0.06368176128936226,"200":-0.012113952760366996,"201":0.06885290606796395,"202":0.05229117195312422,"203":-0.021208412474947484,"204":0.08855467227908867,"205":0.002333134911384733,"206":-0.021211465686414414,"207":-0.015038213867377005,"208":0.09113694131118841,"209":-0.08444992298081729,"210":-0.05118437732937714,"211":-0.025988335163088065,"212":0.0062940685114793804,"213":0.07882514230135945,"214":-0.0022822895517565106,"215":0.07261556519675619,"216":0.04312947973485787,"217":0.08821605759468491,"218":-0.015321985978545652,"219":0.012316554698049023,"220":-0.06924333316990262,"221":-0.028103094043682417,"222":0.020127281838882558,"223":-0.08451929476042827,"224":0.002594310622739477,"225":-0.025492982781286234,"226":-0.00500469484293304,"227":0.009808575278846774,"228":-0.0781685373242333,"229":-0.030859178080966502,"230":-0.004161615746243205,"231":-0.010631364295413313,"232":0.031005665214409502,"233":0.041484383404844935,"234":0.045679806769616416,"235":0.01457064959049293,"236":0.0012884670967313152,"237":-0.03432853368402778,"238":-0.05763940916567343,"239":0.10331960532265934,"240":-0.08570897975072553,"241":-0.03243369453935674,"242":0.00892203135767941,"243":-0.0008468623697373822,"244":-0.02848290612559216,"245":0.011750468758143279,"246":-0.06794117210464204,"247":-0.043781632519224026,"248":-0.0741535920905004,"249":0.0576166972004822,"250":-0.029646040552276716,"251":0.007321114618303878,"252":-0.09149467185143832,"253":0.023617760348990165,"254":0.045375423247502676,"255":-0.0177731175466309,"256":-0.02297243954352997,"257":0.0013590048178761737,"258":-0.018905344822480567,"259":0.03586045107043499,"260":0.019532968582625942,"261":-0.0022406797627393623,"262":-0.034256521232075295,"263":0.048241811360616615,"264":-0.02206993941136067,"265":0.088567579350553,"266":-0.040647255111869035,"267":0.041891999804954234,"268":-0.00773472920800485,"269":-0.001955562236896285,"270":0.03440600555629264,"271":0.02955540550532058,"272":0.0451485670931905,"273":0.046809038737885666,"274":-0.0030447995947649547,"275":-0.006411378000024771,"276":0.0637335283068252,"277":0.05642955144148846,"278":-0.038816615954117686,"279":-0.019577963168267626,"280":0.03657090949960654,"281":0.01876305754162301,"282":0.0389726576266997,"283":-0.1027854733350052,"284":0.00570450122244767,"285":0.004950572343416567,"286":0.04624583020340004,"287":0.06897165492109476,"288":-0.04678224807772592,"289":-0.06389978598314315,"290":-0.003973361205206906,"291":0.042188252025643976,"292":0.024679751830619788,"293":-0.06387222723444742,"294":0.05595165727232841,"295":0.06612936899071221,"296":0.07064625745548593,"297":-0.015894172753673788,"298":0.036052935029602697,"299":-0.07470773010903585,"300":-0.04844483313978882,"301":0.010601688317923493,